<?xml version="1.0"?>
<opencv_storage>
<stage3>
  <maxWeakCount>14</maxWeakCount>
  <stageThreshold>-8.6776983737945557e-01</stageThreshold>
  <weakClassifiers>
    <_>
      <internalNodes>
        0 -1 38344 -6.6476352512836456e-03</internalNodes>
      <leafValues>
        6.5885496139526367e-01 -8.4062382578849792e-02</leafValues></_>
    <_>
      <internalNodes>
        0 -1 650011 6.3088051974773407e-03</internalNodes>
      <leafValues>
        -1.9408296048641205e-01 7.1308922767639160e-01</leafValues></_>
    <_>
      <internalNodes>
        0 -1 71441 -9.1419182717800140e-03</internalNodes>
      <leafValues>
        7.1863657236099243e-01 -1.9272178411483765e-01</leafValues></_>
    <_>
      <internalNodes>
        0 -1 515282 2.7142241597175598e-03</internalNodes>
      <leafValues>
        -2.1056541800498962e-01 6.6491025686264038e-01</leafValues></_>
    <_>
      <internalNodes>
        0 -1 515266 -1.8693974707275629e-03</internalNodes>
      <leafValues>
        7.9423952102661133e-01 -2.1201278269290924e-01</leafValues></_>
    <_>
      <internalNodes>
        0 -1 571831 -1.6143429093062878e-03</internalNodes>
      <leafValues>
        6.0021322965621948e-01 -2.0390291512012482e-01</leafValues></_>
    <_>
      <internalNodes>
        0 -1 395906 7.6744542457163334e-03</internalNodes>
      <leafValues>
        -1.6824640333652496e-01 6.2219887971878052e-01</leafValues></_>
    <_>
      <internalNodes>
        0 -1 541268 4.8563107848167419e-03</internalNodes>
      <leafValues>
        -1.7537473142147064e-01 5.6322348117828369e-01</leafValues></_>
    <_>
      <internalNodes>
        0 -1 270434 2.6077600196003914e-03</internalNodes>
      <leafValues>
        -1.9289416074752808e-01 5.3400671482086182e-01</leafValues></_>
    <_>
      <internalNodes>
        0 -1 62172 -1.2712073512375355e-03</internalNodes>
      <leafValues>
        -6.5515530109405518e-01 1.5406510233879089e-01</leafValues></_>
    <_>
      <internalNodes>
        0 -1 176250 -3.3702924847602844e-03</internalNodes>
      <leafValues>
        7.0099532604217529e-01 -1.5480828285217285e-01</leafValues></_>
    <_>
      <internalNodes>
        0 -1 10034 7.3988405056297779e-03</internalNodes>
      <leafValues>
        1.7053891718387604e-01 -6.5297496318817139e-01</leafValues></_>
    <_>
      <internalNodes>
        0 -1 377 -3.3716596662998199e-02</internalNodes>
      <leafValues>
        -7.3088824748992920e-01 1.3115108013153076e-01</leafValues></_>
    <_>
      <internalNodes>
        0 -1 173112 -1.1701094917953014e-02</internalNodes>
      <leafValues>
        5.4346096515655518e-01 -2.0091253519058228e-01</leafValues></_></weakClassifiers></stage3>
</opencv_storage>
