<?xml version="1.0"?>
<opencv_storage>
<cascade>
  <stageType>BOOST</stageType>
  <featureType>LBP</featureType>
  <height>20</height>
  <width>100</width>
  <stageParams>
    <boostType>GAB</boostType>
    <minHitRate>9.9500000476837158e-01</minHitRate>
    <maxFalseAlarm>5.0000000000000000e-01</maxFalseAlarm>
    <weightTrimRate>9.4999999999999996e-01</weightTrimRate>
    <maxDepth>1</maxDepth>
    <maxWeakCount>100</maxWeakCount></stageParams>
  <featureParams>
    <maxCatCount>256</maxCatCount>
    <featSize>1</featSize></featureParams>
  <stageNum>20</stageNum>
  <stages>
    <!-- stage 0 -->
    <_>
      <maxWeakCount>5</maxWeakCount>
      <stageThreshold>-5.5734342336654663e-01</stageThreshold>
      <weakClassifiers>
        <_>
          <internalNodes>
            0 -1 124 -2002760484 -1653035860 -1459826691 1970072204
            14944492 -1942201108 149202124 -2004292408</internalNodes>
          <leafValues>
            -5.1656556129455566e-01 8.0554836988449097e-01</leafValues></_>
        <_>
          <internalNodes>
            0 -1 24 -213400832 -684240447 1107313664 -610570158
            1094796352 1244135428 1342767104 -9747901</internalNodes>
          <leafValues>
            -6.4329808950424194e-01 6.6263025999069214e-01</leafValues></_>
        <_>
          <internalNodes>
            0 -1 100 -653016834 -1152183936 235175968 696287274
            -1198862088 -1081606015 -2012706072 -292558673</internalNodes>
          <leafValues>
            -6.1898398399353027e-01 5.9778845310211182e-01</leafValues></_>
        <_>
          <internalNodes>
            0 -1 50 -796884800 -1061126144 1073741824 25165896 536916112
            -939524032 -1470889848 -1952251774</internalNodes>
          <leafValues>
            -5.8333098888397217e-01 5.7801783084869385e-01</leafValues></_>
        <_>
          <internalNodes>
            0 -1 75 -1866448740 -650594052 234718975 1432710907
            -2145729336 -1964498948 1247868158 -2012608376</internalNodes>
          <leafValues>
            -5.1557999849319458e-01 6.4348638057708740e-01</leafValues></_></weakClassifiers></_>
    <!-- stage 1 -->
    <_>
      <maxWeakCount>5</maxWeakCount>
      <stageThreshold>-7.3416894674301147e-01</stageThreshold>
      <weakClassifiers>
        <_>
          <internalNodes>
            0 -1 96 142608604 -1650917668 -1644647171 -1657942460
            14960858 -89083908 682413820 136891596</internalNodes>
          <leafValues>
            -5.7300883531570435e-01 7.2423666715621948e-01</leafValues></_>
        <_>
          <internalNodes>
            0 -1 10 1934881781 -141438567 -787391011 -138952269
            1933906680 1731198976 1929652478 1970628499</internalNodes>
          <leafValues>
            -6.5899509191513062e-01 5.3292000293731689e-01</leafValues></_>
        <_>
          <internalNodes>
            0 -1 62 -1861173232 836505872 83921305 387252489 134252721
            -1433337760 -1535012163 453705736</internalNodes>
          <leafValues>
            -5.7160335779190063e-01 5.1690232753753662e-01</leafValues></_>
        <_>
          <internalNodes>
            0 -1 125 -582289460 -1760472624 1279297672 -1182170492
            -2129997640 -1415020403 -2088200052 -1441871736</internalNodes>
          <leafValues>
            -6.3145464658737183e-01 4.6815177798271179e-01</leafValues></_>
        <_>
          <internalNodes>
            0 -1 133 -1879024560 -34050915 -1476461287 2112158908
            214191258 -25797308 1759816894 -1708208756</internalNodes>
          <leafValues>
            -4.8721909523010254e-01 5.3134971857070923e-01</leafValues></_></weakClassifiers></_>
    <!-- stage 2 -->
    <_>
      <maxWeakCount>7</maxWeakCount>
      <stageThreshold>-1.4181100130081177e+00</stageThreshold>
      <weakClassifiers>
        <_>
          <internalNodes>
            0 -1 36 -1878328068 278954156 1089007359 361318628 987954940
            -1192236315 145420285 143322312</internalNodes>
          <leafValues>
            -3.9327082037925720e-01 6.4795798063278198e-01</leafValues></_>
        <_>
          <internalNodes>
            0 -1 18 -783025705 292585877 -582921829 1433508187
            -268139336 -1732231120 -639326065 291311873</internalNodes>
          <leafValues>
            -4.9192389845848083e-01 4.9596568942070007e-01</leafValues></_>
        <_>
          <internalNodes>
            0 -1 41 -10492082 -7081393 -1236135816 -207646370 421007388
            162138240 597705288 -68420774</internalNodes>
          <leafValues>
            -4.7790670394897461e-01 4.6924313902854919e-01</leafValues></_>
        <_>
          <internalNodes>
            0 -1 98 406980764 1563546727 -1943987841 -548466686
            681609934 -125267320 143166126 -1460753272</internalNodes>
          <leafValues>
            -4.6546071767807007e-01 4.9019432067871094e-01</leafValues></_>
        <_>
          <internalNodes>
            0 -1 136 -134768652 521114907 -1996217076 965544066
            -911685476 -1702853967 -393549108 -1918637313</internalNodes>
          <leafValues>
            -5.2062880992889404e-01 4.6027937531471252e-01</leafValues></_>
        <_>
          <internalNodes>
            0 -1 109 -1836638984 268566728 141 357384454 -771522321
            -2002222399 -1987990549 -1993356337</internalNodes>
          <leafValues>
            -4.8154446482658386e-01 4.6186873316764832e-01</leafValues></_>
        <_>
          <internalNodes>
            0 -1 56 -603967268 -15662000 453188829 391460893 1091070186
            -1711140686 705692057 452985384</internalNodes>
          <leafValues>
            -6.0951149463653564e-01 3.6583817005157471e-01</leafValues></_></weakClassifiers></_>
    <!-- stage 3 -->
    <_>
      <maxWeakCount>8</maxWeakCount>
      <stageThreshold>-1.1203151941299438e+00</stageThreshold>
      <weakClassifiers>
        <_>
          <internalNodes>
            0 -1 30 2004055517 -143392777 2146861055 -513 1964245680
            1440036692 1430083580 2002220927</internalNodes>
          <leafValues>
            -4.4733580946922302e-01 6.2061101198196411e-01</leafValues></_>
        <_>
          <internalNodes>
            0 -1 19 279992564 -105287683 502589951 1606516477 148417262
            -1346611202 716738303 715667097</internalNodes>
          <leafValues>
            -4.9857014417648315e-01 5.5806118249893188e-01</leafValues></_>
        <_>
          <internalNodes>
            0 -1 45 1342232208 1343225872 877665629 1503334477 268482000
            -1870528359 554270715 1006588061</internalNodes>
          <leafValues>
            -5.1552522182464600e-01 4.3388009071350098e-01</leafValues></_>
        <_>
          <internalNodes>
            0 -1 21 5166844 1901646087 1560529319 -1794424824 11533023
            -474153 547204079 9039019</internalNodes>
          <leafValues>
            -5.2006000280380249e-01 3.8397073745727539e-01</leafValues></_>
        <_>
          <internalNodes>
            0 -1 106 -219173170 -1073679132 -1655953408 1096140911
            1648392632 4255880 -104059241 1358950127</internalNodes>
          <leafValues>
            -4.8324063420295715e-01 3.8861623406410217e-01</leafValues></_>
        <_>
          <internalNodes>
            0 -1 173 -2147352492 -576363139 971844925 -1084781195
            -521757446 -54603777 -1945499671 -1435875807</internalNodes>
          <leafValues>
            -4.1459417343139648e-01 4.7418567538261414e-01</leafValues></_>
        <_>
          <internalNodes>
            0 -1 121 1438848420 -1090313865 -2130673504 800523690
            -941700136 -1992568187 1753319652 -1917859717</internalNodes>
          <leafValues>
            -5.6443315744400024e-01 3.2086363434791565e-01</leafValues></_>
        <_>
          <internalNodes>
            0 -1 63 1493325008 294650309 18046679 493175193 -1877995844
            -1743453927 303598489 489902473</internalNodes>
          <leafValues>
            -5.0726401805877686e-01 3.9660722017288208e-01</leafValues></_></weakClassifiers></_>
    <!-- stage 4 -->
    <_>
      <maxWeakCount>9</maxWeakCount>
      <stageThreshold>-1.2353996038436890e+00</stageThreshold>
      <weakClassifiers>
        <_>
          <internalNodes>
            0 -1 27 -753667294 -785186505 -1843031213 1943769911
            21312512 1411391844 1900246903 2000122743</internalNodes>
          <leafValues>
            -5.9298247098922729e-01 5.5061727762222290e-01</leafValues></_>
        <_>
          <internalNodes>
            0 -1 132 -2147464076 -1115713071 -116101765 -46853684
            545788134 -40495879 681639658 -1464938620</internalNodes>
          <leafValues>
            -4.8687011003494263e-01 4.0475970506668091e-01</leafValues></_>
        <_>
          <internalNodes>
            0 -1 153 -80498177 427366195 -1582686200 -1077992917 -67620
            -738197763 -1403190820 -50602017</internalNodes>
          <leafValues>
            -3.3692780137062073e-01 5.3537231683731079e-01</leafValues></_>
        <_>
          <internalNodes>
            0 -1 113 -171970814 1466742759 1856905984 -674244037
            1073702773 420771562 2146269135 -134222130</internalNodes>
          <leafValues>
            -3.5093557834625244e-01 4.8070797324180603e-01</leafValues></_>
        <_>
          <internalNodes>
            0 -1 35 -1862143759 1351110872 -2120939043 1435982840
            1846926060 -1197864716 503376829 992686265</internalNodes>
          <leafValues>
            -4.4772028923034668e-01 3.5684522986412048e-01</leafValues></_>
        <_>
          <internalNodes>
            0 -1 52 -1876775936 -1736376280 16782800 -150535485
            -503275094 -439852875 -1148021334 -282897917</internalNodes>
          <leafValues>
            -3.8882675766944885e-01 3.9748278260231018e-01</leafValues></_>
        <_>
          <internalNodes>
            0 -1 76 -127470132 -641146818 -1346220088 -2122150650
            4582125 -55983959 -2000422739 -1999781140</internalNodes>
          <leafValues>
            -5.4974824190139771e-01 2.8241279721260071e-01</leafValues></_>
        <_>
          <internalNodes>
            0 -1 26 -673450602 -2 2147091932 -98306 -1366029172
            989151225 -866121504 -71312889</internalNodes>
          <leafValues>
            -3.5246226191520691e-01 4.4564396142959595e-01</leafValues></_>
        <_>
          <internalNodes>
            0 -1 13 805321808 -334414436 -1347026723 1058824520
            -1168098901 -1179874837 -1509922322 1996816400</internalNodes>
          <leafValues>
            -5.9653168916702271e-01 2.9531314969062805e-01</leafValues></_></weakClassifiers></_>
    <!-- stage 5 -->
    <_>
      <maxWeakCount>11</maxWeakCount>
      <stageThreshold>-9.4492483139038086e-01</stageThreshold>
      <weakClassifiers>
        <_>
          <internalNodes>
            0 -1 31 -674791425 -9217 -42075171 -134217729 1742550260
            1432115156 2146303961 1979579326</internalNodes>
          <leafValues>
            -2.3069852590560913e-01 6.5428870916366577e-01</leafValues></_>
        <_>
          <internalNodes>
            0 -1 88 -680001736 -1684343172 -2020807544 709322798
            -637430275 -1173366 -754127156 -805310977</internalNodes>
          <leafValues>
            -4.9830681085586548e-01 3.7747693061828613e-01</leafValues></_>
        <_>
          <internalNodes>
            0 -1 57 428910840 -75761442 421302233 -3053155 -1870132056
            -1107400295 18898939 184549512</internalNodes>
          <leafValues>
            -5.6031882762908936e-01 3.0917668342590332e-01</leafValues></_>
        <_>
          <internalNodes>
            0 -1 104 -177754386 -137506107 27788546 -137696890
            1364841447 2136480100 -115368561 2009063626</internalNodes>
          <leafValues>
            -4.2016205191612244e-01 3.9284321665763855e-01</leafValues></_>
        <_>
          <internalNodes>
            0 -1 192 1073860608 -175647411 -213658353 -615543355
            -1067194338 1782606730 -711082290 1078446082</internalNodes>
          <leafValues>
            -5.3312015533447266e-01 3.1187194585800171e-01</leafValues></_>
        <_>
          <internalNodes>
            0 -1 145 -211319294 797738422 -1056571392 -1211914482
            -745840218 33818145 -16836726 1930421326</internalNodes>
          <leafValues>
            -4.7555002570152283e-01 3.2972314953804016e-01</leafValues></_>
        <_>
          <internalNodes>
            0 -1 64 312122015 276824218 83888281 495255693 -1310991713
            -1876257890 -1833321473 164613517</internalNodes>
          <leafValues>
            -4.7135955095291138e-01 3.4000515937805176e-01</leafValues></_>
        <_>
          <internalNodes>
            0 -1 156 -1744153520 1606384390 587783511 1064914954
            1984092656 -1392996255 547063872 35846560</internalNodes>
          <leafValues>
            -5.3170633316040039e-01 3.1573134660720825e-01</leafValues></_>
        <_>
          <internalNodes>
            0 -1 3 -959789380 -481555902 -1071479532 -741829636
            -1698100758 -618102776 1795983512 -270605374</internalNodes>
          <leafValues>
            -4.5855128765106201e-01 3.8531297445297241e-01</leafValues></_>
        <_>
          <internalNodes>
            0 -1 55 1999886129 327285751 -603793575 -1618552797 64707568
            310382609 1409644849 1911912277</internalNodes>
          <leafValues>
            -6.3273549079895020e-01 2.5330927968025208e-01</leafValues></_>
        <_>
          <internalNodes>
            0 -1 105 -606363982 -1120473181 796441868 -1751728594
            1576695072 1064664956 1602169096 -631778047</internalNodes>
          <leafValues>
            -3.2752817869186401e-01 5.0770580768585205e-01</leafValues></_></weakClassifiers></_>
    <!-- stage 6 -->
    <_>
      <maxWeakCount>11</maxWeakCount>
      <stageThreshold>-1.0025017261505127e+00</stageThreshold>
      <weakClassifiers>
        <_>
          <internalNodes>
            0 -1 97 942147804 -1644569092 -1883635745 -570884508
            44304590 -753671 -2002491652 -1465062196</internalNodes>
          <leafValues>
            -2.7012711763381958e-01 6.1040854454040527e-01</leafValues></_>
        <_>
          <internalNodes>
            0 -1 25 -38578 -612110053 -2108506872 -156507298 1657019288
            -527901564 -33809896 -262313</internalNodes>
          <leafValues>
            -3.9997720718383789e-01 4.2964297533035278e-01</leafValues></_>
        <_>
          <internalNodes>
            0 -1 37 1475817983 287319644 -111496709 366221415
            -1697653797 674278840 -1061170433 700251132</internalNodes>
          <leafValues>
            -4.8541671037673950e-01 3.5726600885391235e-01</leafValues></_>
        <_>
          <internalNodes>
            0 -1 66 -1693446951 -541516324 -71335937 -1245892641
            -1735349508 -5324846 -1688154689 -1148583798</internalNodes>
          <leafValues>
            -3.0815318226814270e-01 5.1252835988998413e-01</leafValues></_>
        <_>
          <internalNodes>
            0 -1 108 1408081550 -35292299 1283981444 -748716387
            1247036140 1709712008 1007521742 -119674674</internalNodes>
          <leafValues>
            -4.3493530154228210e-01 3.4442347288131714e-01</leafValues></_>
        <_>
          <internalNodes>
            0 -1 174 -1467595728 -1122441550 990558583 904028453
            682498412 -368389971 -1167516800 -1475722744</internalNodes>
          <leafValues>
            -4.6461364626884460e-01 3.2925394177436829e-01</leafValues></_>
        <_>
          <internalNodes>
            0 -1 69 -250548004 -216433992 1886981143 1435595549
            -903832887 -1724085472 -1761276225 -1141167966</internalNodes>
          <leafValues>
            -3.3308187127113342e-01 4.7106459736824036e-01</leafValues></_>
        <_>
          <internalNodes>
            0 -1 213 -169348736 -1823611508 -454217952 -1075167254
            -144111404 1440779763 -794671224 -137372113</internalNodes>
          <leafValues>
            -3.7588435411453247e-01 4.0149599313735962e-01</leafValues></_>
        <_>
          <internalNodes>
            0 -1 95 -252724242 1354821514 -1450966868 1941801738
            2038526969 1774222208 -695255063 1353050667</internalNodes>
          <leafValues>
            -4.3310895562171936e-01 3.4777355194091797e-01</leafValues></_>
        <_>
          <internalNodes>
            0 -1 225 -978191437 1065331711 1859648933 -107119081
            -1531106056 -1550539015 -11498596 -536882785</internalNodes>
          <leafValues>
            -2.5329139828681946e-01 6.0403984785079956e-01</leafValues></_>
        <_>
          <internalNodes>
            0 -1 172 -1066875900 -127515094 -2077850741 -419461490
            -510160734 -555534712 -874009717 1107551234</internalNodes>
          <leafValues>
            -4.7505438327789307e-01 3.3244457840919495e-01</leafValues></_></weakClassifiers></_>
    <!-- stage 7 -->
    <_>
      <maxWeakCount>11</maxWeakCount>
      <stageThreshold>-6.4544337987899780e-01</stageThreshold>
      <weakClassifiers>
        <_>
          <internalNodes>
            0 -1 114 1543224510 1442643436 373302272 -1210209938
            519656876 1842619348 2010918116 -135189</internalNodes>
          <leafValues>
            -8.8157400488853455e-02 6.6517722606658936e-01</leafValues></_>
        <_>
          <internalNodes>
            0 -1 186 -2011020204 492261813 -1350313643 -138645188
            615516600 -1098241045 -355980312 -330405888</internalNodes>
          <leafValues>
            -4.2635145783424377e-01 3.8026255369186401e-01</leafValues></_>
        <_>
          <internalNodes>
            0 -1 161 -1066025 1051126506 -1347640312 -1888565202
            -135266824 -1083285777 -18121732 -271594753</internalNodes>
          <leafValues>
            -3.7136748433113098e-01 3.8749429583549500e-01</leafValues></_>
        <_>
          <internalNodes>
            0 -1 137 -531898302 -662452029 -485659254 -917536467
            -493889922 -913403197 -267923542 1114105346</internalNodes>
          <leafValues>
            -4.6308901906013489e-01 3.1832152605056763e-01</leafValues></_>
        <_>
          <internalNodes>
            0 -1 77 1409872360 -784806878 1197279007 1436353575
            -1459153224 -1073889649 1925589743 -1079310166</internalNodes>
          <leafValues>
            -3.5010224580764771e-01 4.4392982125282288e-01</leafValues></_>
        <_>
          <internalNodes>
            0 -1 90 -7360062 825015086 -1576197876 1906947598 -961546290
            114882702 -974454802 -1012997494</internalNodes>
          <leafValues>
            -3.6398166418075562e-01 4.2219108343124390e-01</leafValues></_>
        <_>
          <internalNodes>
            0 -1 7 -549456946 -784219821 -318669412 -168888200 170396124
            -1046478620 -336193028 -38047618</internalNodes>
          <leafValues>
            -3.9300799369812012e-01 3.7020316720008850e-01</leafValues></_>
        <_>
          <internalNodes>
            0 -1 49 319033360 1464948509 827855259 -43175211 -1340825720
            -1336917809 856732059 456655241</internalNodes>
          <leafValues>
            -4.7727560997009277e-01 3.0768740177154541e-01</leafValues></_>
        <_>
          <internalNodes>
            0 -1 162 -617661746 2026016910 1644726436 -1813210172
            -1010172967 5255573 -498642199 1390266058</internalNodes>
          <leafValues>
            -4.7990918159484863e-01 3.0326190590858459e-01</leafValues></_>
        <_>
          <internalNodes>
            0 -1 58 -2011920132 -612232814 88238603 -48380922 135006296
            -293042168 9319504 146948228</internalNodes>
          <leafValues>
            -6.0588192939758301e-01 2.3218962550163269e-01</leafValues></_>
        <_>
          <internalNodes>
            0 -1 67 -644653170 386515253 307347436 789522691 -117323057
            -347389458 -1014314524 -1429476674</internalNodes>
          <leafValues>
            -5.1595127582550049e-01 2.9034844040870667e-01</leafValues></_></weakClassifiers></_>
    <!-- stage 8 -->
    <_>
      <maxWeakCount>11</maxWeakCount>
      <stageThreshold>-7.4510747194290161e-01</stageThreshold>
      <weakClassifiers>
        <_>
          <internalNodes>
            0 -1 29 1903362963 1945598965 -537968843 -135020673
            1735726356 1467316055 1735735034 2004350331</internalNodes>
          <leafValues>
            -3.4596490859985352e-01 5.4491806030273438e-01</leafValues></_>
        <_>
          <internalNodes>
            0 -1 39 -1441596426 1346388592 193125837 1573649567
            -888620290 -90436829 172802028 436203001</internalNodes>
          <leafValues>
            -4.0565115213394165e-01 3.7540274858474731e-01</leafValues></_>
        <_>
          <internalNodes>
            0 -1 2 -2033547136 1635837856 1929457848 -278861664
            -522774097 -611680118 -1882382148 -537141317</internalNodes>
          <leafValues>
            -4.0719133615493774e-01 3.5688054561614990e-01</leafValues></_>
        <_>
          <internalNodes>
            0 -1 217 -41961505 858993531 1977081207 -1177027093
            -1771167512 754646777 1540957464 -4489409</internalNodes>
          <leafValues>
            -3.1288453936576843e-01 4.6119421720504761e-01</leafValues></_>
        <_>
          <internalNodes>
            0 -1 141 -666870692 -572730721 1058117555 -8796206
            -1474807062 -77167939 -1060669702 -1465370976</internalNodes>
          <leafValues>
            -4.1013589501380920e-01 3.5210198163986206e-01</leafValues></_>
        <_>
          <internalNodes>
            0 -1 78 936351422 4613774 -1417535068 75661858 1300939513
            -816936797 -1563832660 -1896963345</internalNodes>
          <leafValues>
            -6.4435368776321411e-01 1.9031181931495667e-01</leafValues></_>
        <_>
          <internalNodes>
            0 -1 150 -72370630 -1433357024 -2107204096 -1999566227
            -1439431136 595459889 1962422028 -352326070</internalNodes>
          <leafValues>
            -3.3748289942741394e-01 4.1576153039932251e-01</leafValues></_>
        <_>
          <internalNodes>
            0 -1 16 487658520 -1824901 291613565 1069450591 -1714843443
            -1380318728 -1908786695 1999986753</internalNodes>
          <leafValues>
            -5.0800842046737671e-01 2.5875994563102722e-01</leafValues></_>
        <_>
          <internalNodes>
            0 -1 79 -18958698 799586876 1328292106 430613192 -63260749
            964991801 -671173219 -489825778</internalNodes>
          <leafValues>
            -3.7526348233222961e-01 3.7759652733802795e-01</leafValues></_>
        <_>
          <internalNodes>
            0 -1 99 -307775490 2066824511 -538697060 -135481132
            201223679 224179620 -137062979 1401928231</internalNodes>
          <leafValues>
            -3.5545724630355835e-01 4.0405118465423584e-01</leafValues></_>
        <_>
          <internalNodes>
            0 -1 215 -212611160 -1085443693 1023427336 -49991286
            -514706979 635503090 -980346648 1930952359</internalNodes>
          <leafValues>
            -4.4707849621772766e-01 2.9940745234489441e-01</leafValues></_></weakClassifiers></_>
    <!-- stage 9 -->
    <_>
      <maxWeakCount>13</maxWeakCount>
      <stageThreshold>-7.3439902067184448e-01</stageThreshold>
      <weakClassifiers>
        <_>
          <internalNodes>
            0 -1 182 -143700156 -65594 -100729018 -1082147314 -1055612
            -51445764 -687968508 1087302796</internalNodes>
          <leafValues>
            -3.8985869288444519e-01 5.1469665765762329e-01</leafValues></_>
        <_>
          <internalNodes>
            0 -1 112 -83886081 559336 -1961959633 499486443 -65537
            -1832919297 -30502913 -1917850369</internalNodes>
          <leafValues>
            -3.0840840935707092e-01 4.5940563082695007e-01</leafValues></_>
        <_>
          <internalNodes>
            0 -1 22 -1740842934 -615476903 1665266653 -5126847 679745736
            -15736431 -1467418021 -1464931671</internalNodes>
          <leafValues>
            -4.0624755620956421e-01 3.6668884754180908e-01</leafValues></_>
        <_>
          <internalNodes>
            0 -1 110 1978607358 -34819 1005326232 -1048746 1598887549
            1497640184 1828228878 -148497</internalNodes>
          <leafValues>
            -3.4013679623603821e-01 3.8012772798538208e-01</leafValues></_>
        <_>
          <internalNodes>
            0 -1 1 -2013068288 -1442799616 75858001 151845516 -672926052
            -1719219257 -1056122464 -2631749</internalNodes>
          <leafValues>
            -3.8365867733955383e-01 3.2212072610855103e-01</leafValues></_>
        <_>
          <internalNodes>
            0 -1 65 4982172 274243733 151787961 489242641 -396644673
            -2135260998 -1991677013 429832328</internalNodes>
          <leafValues>
            -4.5701751112937927e-01 2.6402518153190613e-01</leafValues></_>
        <_>
          <internalNodes>
            0 -1 8 -1288534608 -339153706 1401992731 475600130
            -2003304231 -36928576 -394159880 1197953351</internalNodes>
          <leafValues>
            -4.9870944023132324e-01 2.3966957628726959e-01</leafValues></_>
        <_>
          <internalNodes>
            0 -1 181 -1039711744 -270323997 -272109781 -9574613
            -11933981 2104752439 -361891842 -232298686</internalNodes>
          <leafValues>
            -3.4427323937416077e-01 3.8570323586463928e-01</leafValues></_>
        <_>
          <internalNodes>
            0 -1 120 2060352466 -181185249 -717229587 -1790459802
            -397882947 -1381399550 1803808552 -1463498036</internalNodes>
          <leafValues>
            -4.1824999451637268e-01 3.2246661186218262e-01</leafValues></_>
        <_>
          <internalNodes>
            0 -1 144 -217889790 -218254365 559394250 1391419211
            -1319460858 -1680092270 -108531025 1395097667</internalNodes>
          <leafValues>
            -4.1991597414016724e-01 3.1832408905029297e-01</leafValues></_>
        <_>
          <internalNodes>
            0 -1 85 823819901 1351452318 2131451801 -546354939
            -1439334660 -612466963 -17109059 -1691690867</internalNodes>
          <leafValues>
            -2.9541045427322388e-01 4.5651540160179138e-01</leafValues></_>
        <_>
          <internalNodes>
            0 -1 169 -2062052994 331600134 21233804 -276815750 554945257
            633158312 950832316 -808554545</internalNodes>
          <leafValues>
            -3.8210013508796692e-01 3.4552255272865295e-01</leafValues></_>
        <_>
          <internalNodes>
            0 -1 142 -1727423246 1575244382 -1492872440 -1713487806
            1115998340 -1128840943 1751428612 -2005992531</internalNodes>
          <leafValues>
            -4.4407814741134644e-01 3.0848231911659241e-01</leafValues></_></weakClassifiers></_>
    <!-- stage 10 -->
    <_>
      <maxWeakCount>13</maxWeakCount>
      <stageThreshold>-1.1443246603012085e+00</stageThreshold>
      <weakClassifiers>
        <_>
          <internalNodes>
            0 -1 44 2013233111 -16395 -98305 -134217729 905787264
            1674868213 1433171965 2003695460</internalNodes>
          <leafValues>
            -3.0297029018402100e-01 5.4827201366424561e-01</leafValues></_>
        <_>
          <internalNodes>
            0 -1 154 -604241921 490303865 556761480 670284708 -480903239
            -1443004676 2089803773 -2097153</internalNodes>
          <leafValues>
            -2.6922786235809326e-01 4.7683644294738770e-01</leafValues></_>
        <_>
          <internalNodes>
            0 -1 5 -10562338 -608784802 1540936278 933014872 159592845
            -402585405 985664168 -67214276</internalNodes>
          <leafValues>
            -3.8260731101036072e-01 3.2279232144355774e-01</leafValues></_>
        <_>
          <internalNodes>
            0 -1 74 -658983459 -294604 221879157 -140943971 619192252
            -1179121423 990388219 724041728</internalNodes>
          <leafValues>
            -4.2284512519836426e-01 2.9765826463699341e-01</leafValues></_>
        <_>
          <internalNodes>
            0 -1 199 570573826 -10486603 -145594497 -818961617
            -429001745 -89175050 -1544952141 -497039834</internalNodes>
          <leafValues>
            -3.5601001977920532e-01 3.3057251572608948e-01</leafValues></_>
        <_>
          <internalNodes>
            0 -1 87 1353439438 -1865940947 -1523449793 487522393
            -2116289542 -1594924357 -1158993253 -1610643043</internalNodes>
          <leafValues>
            -3.5077276825904846e-01 3.4091234207153320e-01</leafValues></_>
        <_>
          <internalNodes>
            0 -1 157 1610592774 261405130 -1995697908 872043695
            545465189 431771549 1835348639 1932518659</internalNodes>
          <leafValues>
            -4.3204206228256226e-01 2.6364195346832275e-01</leafValues></_>
        <_>
          <internalNodes>
            0 -1 221 1095237566 922960061 -2059848720 1434254299
            1106741192 21284 148214152 1408234974</internalNodes>
          <leafValues>
            -4.1007700562477112e-01 2.9081824421882629e-01</leafValues></_>
        <_>
          <internalNodes>
            0 -1 38 -1743521076 -1799584200 1086708132 1430001468
            -16655636 -1556932467 1523339245 943704285</internalNodes>
          <leafValues>
            -4.3125161528587341e-01 2.9077011346817017e-01</leafValues></_>
        <_>
          <internalNodes>
            0 -1 60 -1418231014 -351013998 822788184 -908543544
            1002511352 -123670400 1933323376 -8464</internalNodes>
          <leafValues>
            -3.6246082186698914e-01 3.3661165833473206e-01</leafValues></_>
        <_>
          <internalNodes>
            0 -1 18 1402182579 928002965 1360130399 995734353
            -1984305637 -1475047739 -1937126149 830427905</internalNodes>
          <leafValues>
            -4.6034774184226990e-01 2.6648154854774475e-01</leafValues></_>
        <_>
          <internalNodes>
            0 -1 117 -808721114 329848618 -592767722 -1884385623
            -1074315391 800348149 1656170272 -420482046</internalNodes>
          <leafValues>
            -3.3222490549087524e-01 3.9367291331291199e-01</leafValues></_>
        <_>
          <internalNodes>
            0 -1 81 -2079099938 -2012175816 657503165 495814969
            -1999667381 -1601438915 -1469927781 -1653744451</internalNodes>
          <leafValues>
            -3.4448286890983582e-01 3.6453825235366821e-01</leafValues></_></weakClassifiers></_>
    <!-- stage 11 -->
    <_>
      <maxWeakCount>13</maxWeakCount>
      <stageThreshold>-8.6563235521316528e-01</stageThreshold>
      <weakClassifiers>
        <_>
          <internalNodes>
            0 -1 42 -135006430 -2185 -8915981 -2177 1416918592
            1926518644 2004187127 2004318070</internalNodes>
          <leafValues>
            -4.0651163458824158e-01 4.9482232332229614e-01</leafValues></_>
        <_>
          <internalNodes>
            0 -1 202 -2142937993 -606218252 -557197 1006630618 514841849
            -1146882 1048502271 -85000700</internalNodes>
          <leafValues>
            -2.4231599271297455e-01 5.3052306175231934e-01</leafValues></_>
        <_>
          <internalNodes>
            0 -1 148 -34106369 1064091632 -1473101988 661422044
            185106348 -1887913476 -822199828 -267813</internalNodes>
          <leafValues>
            -2.2360682487487793e-01 5.3287309408187866e-01</leafValues></_>
        <_>
          <internalNodes>
            0 -1 123 -2147476204 -6548390 -1255076449 -1622833539
            -2030005602 -1701402647 -1545012740 170524840</internalNodes>
          <leafValues>
            -5.2437520027160645e-01 2.0769162476062775e-01</leafValues></_>
        <_>
          <internalNodes>
            0 -1 107 -255355254 -44182137 209715200 -680404721
            -1312434965 1915827690 2132233215 -417340754</internalNodes>
          <leafValues>
            -3.2589489221572876e-01 3.6546507477760315e-01</leafValues></_>
        <_>
          <internalNodes>
            0 -1 159 -684851388 -1147826274 -581598684 495136928
            -775723272 -1707570390 -122050552 956229070</internalNodes>
          <leafValues>
            -5.4492193460464478e-01 2.0212382078170776e-01</leafValues></_>
        <_>
          <internalNodes>
            0 -1 170 1041992578 827896085 973472904 -211244 -1297185492
            359661762 749207468 2142004864</internalNodes>
          <leafValues>
            -4.9958783388137817e-01 2.2693122923374176e-01</leafValues></_>
        <_>
          <internalNodes>
            0 -1 106 1391929866 703443955 -1888082164 1205854414
            2063667981 1174462621 2102164958 1358810735</internalNodes>
          <leafValues>
            -4.8433557152748108e-01 2.3438949882984161e-01</leafValues></_>
        <_>
          <internalNodes>
            0 -1 139 -91510034 1690865873 -402904960 2043646118
            1581331428 219160861 1999423182 -754981218</internalNodes>
          <leafValues>
            -3.6783283948898315e-01 3.1015753746032715e-01</leafValues></_>
        <_>
          <internalNodes>
            0 -1 185 -490540928 -540429859 -308563317 -612392480
            -626395041 -1768716662 1780153753 1080377856</internalNodes>
          <leafValues>
            -5.0426316261291504e-01 2.4576269090175629e-01</leafValues></_>
        <_>
          <internalNodes>
            0 -1 160 -17847308 298724658 495597856 -73654296 707797285
            757416241 1157933033 -743443658</internalNodes>
          <leafValues>
            -3.4501576423645020e-01 3.3990338444709778e-01</leafValues></_>
        <_>
          <internalNodes>
            0 -1 210 131152 -1151528634 -1604363053 -80735393
            -1826743573 -24163515 -1357214918 -434642680</internalNodes>
          <leafValues>
            -3.9658468961715698e-01 3.0230280756950378e-01</leafValues></_>
        <_>
          <internalNodes>
            0 -1 103 88095764 1368404036 160224531 1024524629
            -1070531860 -652077651 19040666 454825096</internalNodes>
          <leafValues>
            -4.3422418832778931e-01 2.8813436627388000e-01</leafValues></_></weakClassifiers></_>
    <!-- stage 12 -->
    <_>
      <maxWeakCount>14</maxWeakCount>
      <stageThreshold>-1.0035953521728516e+00</stageThreshold>
      <weakClassifiers>
        <_>
          <internalNodes>
            0 -1 68 -55645458 -1074069506 -1966158328 720038570
            -402919435 -285278209 -286364468 -319886097</internalNodes>
          <leafValues>
            -4.1978865861892700e-01 4.9142971634864807e-01</leafValues></_>
        <_>
          <internalNodes>
            0 -1 53 -673436584 -540745024 -517992424 -650345492
            1070863832 -1414683000 83364584 -382020</internalNodes>
          <leafValues>
            -5.7665157318115234e-01 2.4901013076305389e-01</leafValues></_>
        <_>
          <internalNodes>
            0 -1 164 -1737728908 1031505853 324047739 -45120256
            675584250 2029166768 -434284124 -356068408</internalNodes>
          <leafValues>
            -4.2532801628112793e-01 3.1091114878654480e-01</leafValues></_>
        <_>
          <internalNodes>
            0 -1 149 -545538066 -1280813830 -1530648064 -3100786
            1882998665 456422940 2038201796 -71307541</internalNodes>
          <leafValues>
            -3.3049428462982178e-01 3.6156293749809265e-01</leafValues></_>
        <_>
          <internalNodes>
            0 -1 179 -1710536458 -49663391 -247136484 -39394972
            -867647136 -257582932 1783495430 -1940917713</internalNodes>
          <leafValues>
            -3.7452906370162964e-01 3.0565291643142700e-01</leafValues></_>
        <_>
          <internalNodes>
            0 -1 11 1198486463 -475013641 -2004242213 2047000719
            2062030812 1533886945 -139808888 1056469928</internalNodes>
          <leafValues>
            -4.4429308176040649e-01 2.6030468940734863e-01</leafValues></_>
        <_>
          <internalNodes>
            0 -1 226 -251480111 -80483563 320895383 1608172421
            1220719327 -1358986127 -335577173 -1165012111</internalNodes>
          <leafValues>
            -2.4434593319892883e-01 5.1062887907028198e-01</leafValues></_>
        <_>
          <internalNodes>
            0 -1 54 -243035693 -1512051741 254607350 -282449101
            -839744376 -306657831 -274485346 1170174583</internalNodes>
          <leafValues>
            -3.5710024833679199e-01 3.7009716033935547e-01</leafValues></_>
        <_>
          <internalNodes>
            0 -1 208 1682362912 926028777 -574385409 390349510
            -1578496820 313011154 -2081291916 2002808898</internalNodes>
          <leafValues>
            -5.3594428300857544e-01 2.3232173919677734e-01</leafValues></_>
        <_>
          <internalNodes>
            0 -1 233 -758410056 -49871274 1900039261 -249102232
            263776488 -607419984 -1660909832 -71613286</internalNodes>
          <leafValues>
            -2.4722744524478912e-01 4.7587832808494568e-01</leafValues></_>
        <_>
          <internalNodes>
            0 -1 211 -2143090176 -44365161 814419511 -657511957
            -364948763 -591228517 -489382961 1087358242</internalNodes>
          <leafValues>
            -4.2318892478942871e-01 2.7708840370178223e-01</leafValues></_>
        <_>
          <internalNodes>
            0 -1 122 -807162544 -294850784 207761154 -1280645973
            1467504016 754284527 1769693216 -136582587</internalNodes>
          <leafValues>
            -3.2945373654365540e-01 3.5597634315490723e-01</leafValues></_>
        <_>
          <internalNodes>
            0 -1 196 -30712558 -962858196 1884889971 260736016 588202712
            -1440028535 1909215068 1658515648</internalNodes>
          <leafValues>
            -4.3223175406455994e-01 2.7062752842903137e-01</leafValues></_>
        <_>
          <internalNodes>
            0 -1 232 -97781616 1517568032 378838737 -716625052
            -1684561534 974799874 -1256969845 -1691357054</internalNodes>
          <leafValues>
            -3.0609002709388733e-01 3.9819458127021790e-01</leafValues></_></weakClassifiers></_>
    <!-- stage 13 -->
    <_>
      <maxWeakCount>16</maxWeakCount>
      <stageThreshold>-7.6725959777832031e-01</stageThreshold>
      <weakClassifiers>
        <_>
          <internalNodes>
            0 -1 46 -393478913 278954232 629886959 1571672206 -537071617
            15383260 -60817409 426502329</internalNodes>
          <leafValues>
            -1.2011718750000000e-01 5.6831985712051392e-01</leafValues></_>
        <_>
          <internalNodes>
            0 -1 6 -1390181758 -805360050 220941838 -1907970526
            -1180834309 -1095857743 -1105821185 -559277</internalNodes>
          <leafValues>
            -3.0269727110862732e-01 3.7204930186271667e-01</leafValues></_>
        <_>
          <internalNodes>
            0 -1 193 -1809427375 1576435622 -696323 -33826825 486332088
            -20521492 -453968300 -423200960</internalNodes>
          <leafValues>
            -3.1724122166633606e-01 3.5329216718673706e-01</leafValues></_>
        <_>
          <internalNodes>
            0 -1 102 -353388802 -822047408 1860182236 1906177366
            1934268585 159941120 1661765102 1393225486</internalNodes>
          <leafValues>
            -4.2550966143608093e-01 2.8297710418701172e-01</leafValues></_>
        <_>
          <internalNodes>
            0 -1 72 -788845398 1592503562 122240394 -1693056419
            -185101393 1255960106 -1618887254 15303210</internalNodes>
          <leafValues>
            -5.0461143255233765e-01 2.1880573034286499e-01</leafValues></_>
        <_>
          <internalNodes>
            0 -1 32 -1776122944 -844559019 -1660717313 -46983723
            824185764 -1174703325 1001470203 -2137327</internalNodes>
          <leafValues>
            -3.5477960109710693e-01 3.1264165043830872e-01</leafValues></_>
        <_>
          <internalNodes>
            0 -1 200 1107509248 2109719191 -586683445 -108039819
            -274996226 -46440552 -1109153169 -260873724</internalNodes>
          <leafValues>
            -3.6531743407249451e-01 3.0395886301994324e-01</leafValues></_>
        <_>
          <internalNodes>
            0 -1 180 -28692993 360974356 -549306036 -139532250
            -2012489388 468155967 1640918801 1271844158</internalNodes>
          <leafValues>
            -3.6528477072715759e-01 3.0291128158569336e-01</leafValues></_>
        <_>
          <internalNodes>
            0 -1 209 1568662766 -2002552445 2145076290 1123942247
            627586729 1055160132 -432179884 -10131587</internalNodes>
          <leafValues>
            -3.1392899155616760e-01 3.5668978095054626e-01</leafValues></_>
        <_>
          <internalNodes>
            0 -1 80 -1811758896 -1115616671 -1876321409 1061225873
            -519191558 -1700921653 110467007 -1618263365</internalNodes>
          <leafValues>
            -2.9922145605087280e-01 3.9997154474258423e-01</leafValues></_>
        <_>
          <internalNodes>
            0 -1 216 988744723 404845360 -633455589 1199390003
            -1090521924 -1942294723 703081688 -18913377</internalNodes>
          <leafValues>
            -2.8838807344436646e-01 4.0644890069961548e-01</leafValues></_>
        <_>
          <internalNodes>
            0 -1 89 -885082190 -1782837900 -2336483 762195300
            -1074987672 1069088767 251462533 -654319321</internalNodes>
          <leafValues>
            -3.0689641833305359e-01 3.8578686118125916e-01</leafValues></_>
        <_>
          <internalNodes>
            0 -1 71 -800968030 -671042677 -249645945 -1142062698
            -1669140351 -1365335550 -867980314 5161510</internalNodes>
          <leafValues>
            -4.8140218853950500e-01 2.3492205142974854e-01</leafValues></_>
        <_>
          <internalNodes>
            0 -1 14 928323381 -100812133 -937337651 -744111469
            -452393204 -244034800 -1411027983 2010411781</internalNodes>
          <leafValues>
            -5.0123316049575806e-01 2.3709315061569214e-01</leafValues></_>
        <_>
          <internalNodes>
            0 -1 92 -1877814824 285550884 277614685 1431372139
            -1774145907 -125631736 428669871 994790845</internalNodes>
          <leafValues>
            -3.7138345837593079e-01 3.4049102663993835e-01</leafValues></_>
        <_>
          <internalNodes>
            0 -1 187 -238298744 -189815251 -67187869 133770625
            -1374652008 -576893065 -1386724429 -8417622</internalNodes>
          <leafValues>
            -2.4953214824199677e-01 4.9199932813644409e-01</leafValues></_></weakClassifiers></_>
    <!-- stage 14 -->
    <_>
      <maxWeakCount>16</maxWeakCount>
      <stageThreshold>-7.4638646841049194e-01</stageThreshold>
      <weakClassifiers>
        <_>
          <internalNodes>
            0 -1 115 -1360074902 -1357185302 -1507815904 47065770 -8195
            -134217729 -270013204 -318771474</internalNodes>
          <leafValues>
            -4.3728813529014587e-01 4.6666666865348816e-01</leafValues></_>
        <_>
          <internalNodes>
            0 -1 12 1474949629 -340803045 1149425683 -484192733
            198017001 1547510240 -1450137459 1794722815</internalNodes>
          <leafValues>
            -3.6706930398941040e-01 3.1806120276451111e-01</leafValues></_>
        <_>
          <internalNodes>
            0 -1 59 -1744284592 1029128452 1798603032 -40037568 2099236
            -100113868 -1430759372 715829381</internalNodes>
          <leafValues>
            -4.8277729749679565e-01 2.7130302786827087e-01</leafValues></_>
        <_>
          <internalNodes>
            0 -1 146 -1075888402 1442642834 -1072689952 -70270978
            337394580 1235544813 2101685736 -83886385</internalNodes>
          <leafValues>
            -3.3830285072326660e-01 3.2587555050849915e-01</leafValues></_>
        <_>
          <internalNodes>
            0 -1 127 -1810766248 339682371 89982967 291447695 -641388897
            -1107566951 -81523720 -1074855800</internalNodes>
          <leafValues>
            -3.0121228098869324e-01 3.5831731557846069e-01</leafValues></_>
        <_>
          <internalNodes>
            0 -1 197 -11598618 -136470025 1116710220 -1614955192
            -399774980 277701120 -410195764 1944931532</internalNodes>
          <leafValues>
            -4.3247634172439575e-01 2.4672584235668182e-01</leafValues></_>
        <_>
          <internalNodes>
            0 -1 224 -880560558 855767051 -2116415180 218137984
            -986208136 470350721 -408385400 -570820115</internalNodes>
          <leafValues>
            -3.2147178053855896e-01 3.4272465109825134e-01</leafValues></_>
        <_>
          <internalNodes>
            0 -1 130 -204555192 -426924156 852232200 1904929469
            -1781792688 32564630 1585398670 1393544071</internalNodes>
          <leafValues>
            -4.5086044073104858e-01 2.2356152534484863e-01</leafValues></_>
        <_>
          <internalNodes>
            0 -1 195 -297396672 -15892061 2089110909 -215060094
            -994671052 -125387622 1199684368 1852231440</internalNodes>
          <leafValues>
            -5.0002765655517578e-01 1.9997894763946533e-01</leafValues></_>
        <_>
          <internalNodes>
            0 -1 138 472721126 544521480 1324878860 -255011676
            1394086240 117727988 2035366989 1402861378</internalNodes>
          <leafValues>
            -5.0033462047576904e-01 2.1558502316474915e-01</leafValues></_>
        <_>
          <internalNodes>
            0 -1 236 -694513509 -1829863280 1696619735 -1660484528
            -2094229287 2086880776 196780233 -1861287789</internalNodes>
          <leafValues>
            -2.5933545827865601e-01 4.1438251733779907e-01</leafValues></_>
        <_>
          <internalNodes>
            0 -1 190 -286314258 -1033067441 1078743264 334859079
            1059924381 11800628 997423772 1895645867</internalNodes>
          <leafValues>
            -4.2757713794708252e-01 2.5006544589996338e-01</leafValues></_>
        <_>
          <internalNodes>
            0 -1 204 2147473721 602832742 -1410534155 -269565342
            -1177244016 964611965 -1141097687 -101718138</internalNodes>
          <leafValues>
            -2.8084504604339600e-01 3.9913913607597351e-01</leafValues></_>
        <_>
          <internalNodes>
            0 -1 94 2043118310 -213824692 17105536 -28991723 -902519881
            -1191173574 -884893457 -810880912</internalNodes>
          <leafValues>
            -3.2874950766563416e-01 3.4333088994026184e-01</leafValues></_>
        <_>
          <internalNodes>
            0 -1 230 -939386672 -1324471900 83898483 2066223133
            -1995165542 -1257226068 144821216 -1719008101</internalNodes>
          <leafValues>
            -3.4318193793296814e-01 3.2993710041046143e-01</leafValues></_>
        <_>
          <internalNodes>
            0 -1 118 1306985414 127154446 -1998838524 1999454668
            -1168083071 960236416 1431709071 297394700</internalNodes>
          <leafValues>
            -4.7235253453254700e-01 2.4864210188388824e-01</leafValues></_></weakClassifiers></_>
    <!-- stage 15 -->
    <_>
      <maxWeakCount>15</maxWeakCount>
      <stageThreshold>-6.6778278350830078e-01</stageThreshold>
      <weakClassifiers>
        <_>
          <internalNodes>
            0 -1 151 -1611967570 503247917 -1934840276 1064808360
            -20984324 -1116078083 -1624266820 -1347682305</internalNodes>
          <leafValues>
            -1.2880323827266693e-01 5.5958294868469238e-01</leafValues></_>
        <_>
          <internalNodes>
            0 -1 61 2123628541 -537788417 -515 -1 207447996 1021119437
            1858952700 -5377</internalNodes>
          <leafValues>
            -2.5236544013023376e-01 4.4280382990837097e-01</leafValues></_>
        <_>
          <internalNodes>
            0 -1 188 -1643359920 456836000 -536717953 1071420036
            833740744 -628905280 -1678714094 2005820556</internalNodes>
          <leafValues>
            -4.1397047042846680e-01 2.7656593918800354e-01</leafValues></_>
        <_>
          <internalNodes>
            0 -1 135 -800858294 -504848859 -813036022 -515249266
            -275908623 602535737 972240523 1356424847</internalNodes>
          <leafValues>
            -4.0111705660820007e-01 2.5756168365478516e-01</leafValues></_>
        <_>
          <internalNodes>
            0 -1 212 1245235 -71582988 -1481108067 2141040596
            -1095332610 -1095577978 -91476229 -154413045</internalNodes>
          <leafValues>
            -2.6697224378585815e-01 4.0222302079200745e-01</leafValues></_>
        <_>
          <internalNodes>
            0 -1 20 -1878461490 1125290694 -233470027 -1083365448
            1616707869 -1116497613 568195241 11120637</internalNodes>
          <leafValues>
            -5.1276475191116333e-01 1.8853288888931274e-01</leafValues></_>
        <_>
          <internalNodes>
            0 -1 198 -1997578415 933988814 -579046691 -305232728
            -2065757700 2113006303 2087261112 2087024485</internalNodes>
          <leafValues>
            -3.6078941822052002e-01 2.9883608222007751e-01</leafValues></_>
        <_>
          <internalNodes>
            0 -1 73 -645204613 -1178980641 1335737781 -8552961
            -1385589854 -71696434 -575291457 -1181775222</internalNodes>
          <leafValues>
            -2.1904644370079041e-01 5.0462400913238525e-01</leafValues></_>
        <_>
          <internalNodes>
            0 -1 134 1664005230 732862612 -1052241652 -1346396146
            1398217964 442238460 -850272535 1107938082</internalNodes>
          <leafValues>
            -4.3721801042556763e-01 2.5588059425354004e-01</leafValues></_>
        <_>
          <internalNodes>
            0 -1 147 -1204890410 -581708693 -266244334 -171318718
            1819546788 -146530024 -1431671232 753793173</internalNodes>
          <leafValues>
            -4.4065299630165100e-01 2.5123932957649231e-01</leafValues></_>
        <_>
          <internalNodes>
            0 -1 0 -1476163045 -362397529 599147865 1686719267
            -767064920 -624638241 -1456470625 -9438977</internalNodes>
          <leafValues>
            -2.3160919547080994e-01 4.8423758149147034e-01</leafValues></_>
        <_>
          <internalNodes>
            0 -1 70 -1956951457 1358971642 819006141 487303180
            -608305497 -1463014682 -1900036430 -1886653671</internalNodes>
          <leafValues>
            -2.3297750949859619e-01 4.8446533083915710e-01</leafValues></_>
        <_>
          <internalNodes>
            0 -1 183 -748474881 -952726737 -805957392 2113690618
            766778872 1296847292 1441533948 -16787297</internalNodes>
          <leafValues>
            -2.1231813728809357e-01 4.9632096290588379e-01</leafValues></_>
        <_>
          <internalNodes>
            0 -1 238 -745901896 1931485952 1342347289 1964675089
            344065452 -1375731183 1224773290 -1856302929</internalNodes>
          <leafValues>
            -3.4607064723968506e-01 3.5172161459922791e-01</leafValues></_>
        <_>
          <internalNodes>
            0 -1 143 1388832214 2071838336 346688064 -689066345
            2004037589 451981105 912590470 -420743318</internalNodes>
          <leafValues>
            -3.0058082938194275e-01 3.7004250288009644e-01</leafValues></_></weakClassifiers></_>
    <!-- stage 16 -->
    <_>
      <maxWeakCount>16</maxWeakCount>
      <stageThreshold>-6.9727492332458496e-01</stageThreshold>
      <weakClassifiers>
        <_>
          <internalNodes>
            0 -1 28 1475737436 -134348809 -34 2146959355 2121029108
            1205106044 1442143573 2146989927</internalNodes>
          <leafValues>
            -2.8479999303817749e-01 4.9599999189376831e-01</leafValues></_>
        <_>
          <internalNodes>
            0 -1 167 655857183 -1208605054 -1457242245 -147147850
            -545260197 -526401 -547554305 -69766</internalNodes>
          <leafValues>
            -2.5026011466979980e-01 4.1373702883720398e-01</leafValues></_>
        <_>
          <internalNodes>
            0 -1 155 -2010638104 -1656022762 -1893894345 -12559758
            -324776987 -1145581671 -1458283291 137145036</internalNodes>
          <leafValues>
            -5.1745772361755371e-01 2.0467920601367950e-01</leafValues></_>
        <_>
          <internalNodes>
            0 -1 218 1902310656 -1290301674 -15018196 -712469525
            1701931449 2040645682 -441094980 1432580098</internalNodes>
          <leafValues>
            -4.7677442431449890e-01 2.1464598178863525e-01</leafValues></_>
        <_>
          <internalNodes>
            0 -1 184 -8913933 -1875316817 2129542810 -1455932632
            1581015880 -12896419 1153173244 -1433</internalNodes>
          <leafValues>
            -2.0397433638572693e-01 4.9951627850532532e-01</leafValues></_>
        <_>
          <internalNodes>
            0 -1 171 -135296574 -1812712473 593825348 398250940
            -686939297 321413706 1944287915 -67567896</internalNodes>
          <leafValues>
            -3.4034419059753418e-01 3.0272546410560608e-01</leafValues></_>
        <_>
          <internalNodes>
            0 -1 189 -217333946 -1626144553 889548806 402252486
            -922243652 -1518090023 1911773704 615474794</internalNodes>
          <leafValues>
            -4.6695250272750854e-01 2.0175451040267944e-01</leafValues></_>
        <_>
          <internalNodes>
            0 -1 34 -1743075728 271126804 17982943 335482196 390135031
            303251709 -536327523 1846243645</internalNodes>
          <leafValues>
            -4.5094195008277893e-01 2.2193029522895813e-01</leafValues></_>
        <_>
          <internalNodes>
            0 -1 93 -1978966962 -1863255489 167623101 498145608
            -1980767826 -1197690946 174056687 -1683039285</internalNodes>
          <leafValues>
            -2.9931074380874634e-01 3.3724015951156616e-01</leafValues></_>
        <_>
          <internalNodes>
            0 -1 106 820249356 -1595818460 512107712 -502947313
            1707946764 171512225 1244728024 1927671503</internalNodes>
          <leafValues>
            -5.1857775449752808e-01 2.0917913317680359e-01</leafValues></_>
        <_>
          <internalNodes>
            0 -1 17 -686040801 -175099533 -1974905319 2073384945
            -1080820556 -1143168241 1378945626 997021525</internalNodes>
          <leafValues>
            -3.4345796704292297e-01 2.9287281632423401e-01</leafValues></_>
        <_>
          <internalNodes>
            0 -1 191 -11537424 860786150 1162297378 1663722502
            -1690979024 1471841012 1600469248 1500764718</internalNodes>
          <leafValues>
            -4.9929782748222351e-01 2.1367694437503815e-01</leafValues></_>
        <_>
          <internalNodes>
            0 -1 205 1705353924 -180934911 1837396096 2145767202
            1890169497 1651619508 -384563300 1108825137</internalNodes>
          <leafValues>
            -4.6021175384521484e-01 2.3352737724781036e-01</leafValues></_>
        <_>
          <internalNodes>
            0 -1 131 274706894 -1278176891 303825768 1435262653
            2060128472 -1644150328 461940888 -68624184</internalNodes>
          <leafValues>
            -3.4339600801467896e-01 3.1923922896385193e-01</leafValues></_>
        <_>
          <internalNodes>
            0 -1 234 -896610160 -165725680 -1250783977 -583451631
            -2110607648 -643488687 -1262169670 -586965422</internalNodes>
          <leafValues>
            -2.7296140789985657e-01 4.0971240401268005e-01</leafValues></_>
        <_>
          <internalNodes>
            0 -1 177 -80766258 318158427 -2129624060 -789412576
            -258371952 23609932 559522700 1539163528</internalNodes>
          <leafValues>
            -4.2409351468086243e-01 2.6829034090042114e-01</leafValues></_></weakClassifiers></_>
    <!-- stage 17 -->
    <_>
      <maxWeakCount>16</maxWeakCount>
      <stageThreshold>-7.3795229196548462e-01</stageThreshold>
      <weakClassifiers>
        <_>
          <internalNodes>
            0 -1 48 406288727 286276053 -983811 -2293770 -1 18923517
            -262145 2142815076</internalNodes>
          <leafValues>
            -6.6310636699199677e-02 5.7260859012603760e-01</leafValues></_>
        <_>
          <internalNodes>
            0 -1 54 -267144205 -275270679 522565485 -100664733
            -1359507777 -606352299 -1077937153 -2394249</internalNodes>
          <leafValues>
            -1.7585244774818420e-01 5.2795654535293579e-01</leafValues></_>
        <_>
          <internalNodes>
            0 -1 163 -261185906 -100731685 -24705624 1475019947
            1998057963 528298230 -1949582481 1404040842</internalNodes>
          <leafValues>
            -3.3582219481468201e-01 2.9166671633720398e-01</leafValues></_>
        <_>
          <internalNodes>
            0 -1 207 4390979 -1082194121 722642943 -141323626 1895718911
            -4529253 1961578187 -1341464320</internalNodes>
          <leafValues>
            -3.3044910430908203e-01 2.9377242922782898e-01</leafValues></_>
        <_>
          <internalNodes>
            0 -1 219 -942408833 453008150 -180632449 1535359869
            1845346040 178842747 868428712 1440477631</internalNodes>
          <leafValues>
            -3.1683325767517090e-01 3.1053259968757629e-01</leafValues></_>
        <_>
          <internalNodes>
            0 -1 129 1154463470 17475148 -1320713208 132939784 693747787
            -1106795189 1757386460 145723359</internalNodes>
          <leafValues>
            -5.5126184225082397e-01 1.7420935630798340e-01</leafValues></_>
        <_>
          <internalNodes>
            0 -1 23 -924054456 -1421704676 -1050660464 730096270
            1424129928 -653389782 -81186280 -76754440</internalNodes>
          <leafValues>
            -4.6959024667739868e-01 1.9872480630874634e-01</leafValues></_>
        <_>
          <internalNodes>
            0 -1 119 -17157044 -1933274548 1141573844 -1462230872
            497557320 1002722152 -345871524 -352321737</internalNodes>
          <leafValues>
            -3.8610967993736267e-01 2.6266613602638245e-01</leafValues></_>
        <_>
          <internalNodes>
            0 -1 15 -895962052 -2022339111 144585821 1278273997
            -1755821096 -307965548 989895006 2066808880</internalNodes>
          <leafValues>
            -4.7185093164443970e-01 2.2731019556522369e-01</leafValues></_>
        <_>
          <internalNodes>
            0 -1 101 -187942002 334264768 -956027232 -242509946
            1735459736 35470384 346819500 311023595</internalNodes>
          <leafValues>
            -4.9260622262954712e-01 2.1161676943302155e-01</leafValues></_>
        <_>
          <internalNodes>
            0 -1 84 -612190994 1433719734 4391339 868791122 -509864999
            636577788 -630261559 -303183160</internalNodes>
          <leafValues>
            -3.4688812494277954e-01 2.9636642336845398e-01</leafValues></_>
        <_>
          <internalNodes>
            0 -1 222 -754016378 54747468 -1759638400 -1424573768
            1941781796 274848180 989899912 350220794</internalNodes>
          <leafValues>
            -4.5423418283462524e-01 2.1943759918212891e-01</leafValues></_>
        <_>
          <internalNodes>
            0 -1 166 451359050 546321667 1235222788 968794684 1601032144
            170218068 1465196844 1406391436</internalNodes>
          <leafValues>
            -4.6520939469337463e-01 2.3454117774963379e-01</leafValues></_>
        <_>
          <internalNodes>
            0 -1 175 271277142 -1721894744 -1795087563 -12042142
            1209064913 -553999793 1753709392 1139456140</internalNodes>
          <leafValues>
            -4.0928813815116882e-01 2.4733407795429230e-01</leafValues></_>
        <_>
          <internalNodes>
            0 -1 237 -760810328 324796544 459413529 -540773244
            -1344035610 -392550327 513835145 -1167337298</internalNodes>
          <leafValues>
            -2.7569022774696350e-01 3.8087317347526550e-01</leafValues></_>
        <_>
          <internalNodes>
            0 -1 83 -938546486 -798731943 23234018 -1175935610 541451454
            -1186627583 -1519990532 -1467161363</internalNodes>
          <leafValues>
            -5.2030450105667114e-01 2.1652702987194061e-01</leafValues></_></weakClassifiers></_>
    <!-- stage 18 -->
    <_>
      <maxWeakCount>16</maxWeakCount>
      <stageThreshold>-7.2711098194122314e-01</stageThreshold>
      <weakClassifiers>
        <_>
          <internalNodes>
            0 -1 165 -460398610 -1498510804 766291824 -1884649302
            2147463101 -1896890641 -1783777668 -1347572049</internalNodes>
          <leafValues>
            -1.7751479148864746e-01 5.3364270925521851e-01</leafValues></_>
        <_>
          <internalNodes>
            0 -1 4 -809102594 -111503590 -745736203 -235871292 433653754
            -626298721 -1209123944 -84808</internalNodes>
          <leafValues>
            -3.3456566929817200e-01 3.1196367740631104e-01</leafValues></_>
        <_>
          <internalNodes>
            0 -1 9 -1313864845 -1160384855 -1185624355 793876639
            -1733596452 -1080504324 -1456440324 2004313933</internalNodes>
          <leafValues>
            -4.0105748176574707e-01 2.5604325532913208e-01</leafValues></_>
        <_>
          <internalNodes>
            0 -1 178 1396672390 1564274536 885927664 -137548998
            1336225788 474248480 1475447757 -4199985</internalNodes>
          <leafValues>
            -3.0919620394706726e-01 3.3668017387390137e-01</leafValues></_>
        <_>
          <internalNodes>
            0 -1 128 2124149247 281479372 -1343304818 497273599
            -16777505 -1074142475 -1360068769 -1646134787</internalNodes>
          <leafValues>
            -2.4923549592494965e-01 3.7040764093399048e-01</leafValues></_>
        <_>
          <internalNodes>
            0 -1 203 2098320 -241353181 330001787 -69573019 -1708811538
            -1611916117 -1613927430 -1433343710</internalNodes>
          <leafValues>
            -4.1656395792961121e-01 2.2775325179100037e-01</leafValues></_>
        <_>
          <internalNodes>
            0 -1 176 958351104 -922500148 -2133778060 509141862
            -2097470890 -2053240842 -803240384 1085200076</internalNodes>
          <leafValues>
            -6.5465062856674194e-01 1.2312008440494537e-01</leafValues></_>
        <_>
          <internalNodes>
            0 -1 229 712965631 1054654850 -1256529361 192576442 84774076
            288423772 1541988280 1592721103</internalNodes>
          <leafValues>
            -2.9623651504516602e-01 3.2181924581527710e-01</leafValues></_>
        <_>
          <internalNodes>
            0 -1 126 1957576560 1571424204 851846724 1941558222
            2137572625 253260338 1340118735 1366286595</internalNodes>
          <leafValues>
            -4.4116884469985962e-01 2.0957174897193909e-01</leafValues></_>
        <_>
          <internalNodes>
            0 -1 86 -255417102 1433152958 -1459616188 -739799099
            -386021397 146664874 1670316794 -1681065298</internalNodes>
          <leafValues>
            -2.7278316020965576e-01 3.5412210226058960e-01</leafValues></_>
        <_>
          <internalNodes>
            0 -1 33 1117332592 1963307504 -1020960779 -4730263
            1011878656 1498968852 1653633296 1999917904</internalNodes>
          <leafValues>
            -6.3960540294647217e-01 1.4281915128231049e-01</leafValues></_>
        <_>
          <internalNodes>
            0 -1 227 -201328922 908895939 -1411249536 691925303
            928877997 158954353 -51497303 -1980776661</internalNodes>
          <leafValues>
            -2.8319638967514038e-01 3.5278990864753723e-01</leafValues></_>
        <_>
          <internalNodes>
            0 -1 231 -888617872 -1827506045 -1188010723 -726314054
            -1602187134 -809224066 1031805167 -82358133</internalNodes>
          <leafValues>
            -2.3918707668781281e-01 4.2072686553001404e-01</leafValues></_>
        <_>
          <internalNodes>
            0 -1 214 2076916236 -1417357235 1907166250 -1109430070
            1373667208 1378898213 938803624 108878136</internalNodes>
          <leafValues>
            -5.5062031745910645e-01 1.9118148088455200e-01</leafValues></_>
        <_>
          <internalNodes>
            0 -1 116 279454044 -1117945761 -1962783243 354784656
            -1612657388 2144977908 656989109 193593496</internalNodes>
          <leafValues>
            -5.1650220155715942e-01 1.8722219765186310e-01</leafValues></_>
        <_>
          <internalNodes>
            0 -1 235 -762019656 -731774956 1361707345 2100496455
            -935795088 5374496 1074921862 -1826939762</internalNodes>
          <leafValues>
            -3.2123669981956482e-01 3.2300189137458801e-01</leafValues></_></weakClassifiers></_>
    <!-- stage 19 -->
    <_>
      <maxWeakCount>17</maxWeakCount>
      <stageThreshold>-7.3234301805496216e-01</stageThreshold>
      <weakClassifiers>
        <_>
          <internalNodes>
            0 -1 43 -145527809 -142904337 494696445 1476394871
            1987839856 1198872149 2012509629 2004154367</internalNodes>
          <leafValues>
            -2.4012157320976257e-01 4.9444919824600220e-01</leafValues></_>
        <_>
          <internalNodes>
            0 -1 194 -1607576322 -37028926 -1889399337 -2000492332
            -536215835 -34515813 980400409 -1462829235</internalNodes>
          <leafValues>
            -3.1188449263572693e-01 3.3268976211547852e-01</leafValues></_>
        <_>
          <internalNodes>
            0 -1 152 -537413637 2100336916 115880156 1587551828
            1338798012 -295099188 998176172 -785</internalNodes>
          <leafValues>
            -2.0664604008197784e-01 4.7578600049018860e-01</leafValues></_>
        <_>
          <internalNodes>
            0 -1 223 -805307531 1057716263 -1077945615 -1686241800
            -293107220 168480703 -575861316 -1111503889</internalNodes>
          <leafValues>
            -2.2075650095939636e-01 4.2684358358383179e-01</leafValues></_>
        <_>
          <internalNodes>
            0 -1 82 -1678795896 1942918030 -309969856 1495021572
            -101968453 976785690 -1412614996 1537062664</internalNodes>
          <leafValues>
            -4.4107064604759216e-01 2.0364691317081451e-01</leafValues></_>
        <_>
          <internalNodes>
            0 -1 91 1606757062 1365513694 771760256 1370315085
            -1613977138 1087278890 -85096710 -205592001</internalNodes>
          <leafValues>
            -3.2043769955635071e-01 2.8416410088539124e-01</leafValues></_>
        <_>
          <internalNodes>
            0 -1 201 60420 -137973431 -1476794457 -168625212 -1241798406
            -19666023 1433375676 829253642</internalNodes>
          <leafValues>
            -4.6578854322433472e-01 1.9829708337783813e-01</leafValues></_>
        <_>
          <internalNodes>
            0 -1 51 -83178920 -754742233 473701597 1361117205
            -2005740880 -1961606884 -2128502581 -2092285197</internalNodes>
          <leafValues>
            -2.8049230575561523e-01 3.4812405705451965e-01</leafValues></_>
        <_>
          <internalNodes>
            0 -1 158 4071506 1405781448 230924429 -276602232 -321152550
            -342719090 -1089873841 -51713456</internalNodes>
          <leafValues>
            -3.0465984344482422e-01 3.1338304281234741e-01</leafValues></_>
        <_>
          <internalNodes>
            0 -1 111 -1156327998 -2069101050 72848388 231569126
            650117152 437493776 167941504 160362749</internalNodes>
          <leafValues>
            -5.1659017801284790e-01 1.7750789225101471e-01</leafValues></_>
        <_>
          <internalNodes>
            0 -1 40 -808788025 -2143829041 1073994972 -649068866
            540821268 422326965 -1164149500 -1158742172</internalNodes>
          <leafValues>
            -3.4822681546211243e-01 2.9116696119308472e-01</leafValues></_>
        <_>
          <internalNodes>
            0 -1 47 -2029146454 583838272 76432520 9079431 -805189393
            -65437560 -528294404 -1932734837</internalNodes>
          <leafValues>
            -6.4896643161773682e-01 1.6692107915878296e-01</leafValues></_>
        <_>
          <internalNodes>
            0 -1 140 2003542282 934387820 -1779924916 -36071258
            1473884556 727278001 -1363420594 1916118534</internalNodes>
          <leafValues>
            -4.7546505928039551e-01 1.9520449638366699e-01</leafValues></_>
        <_>
          <internalNodes>
            0 -1 228 1455531729 -1120549983 329515701 -1208372751
            -1187769462 -1622559361 -659256917 -1686635546</internalNodes>
          <leafValues>
            -1.9444067776203156e-01 5.1013237237930298e-01</leafValues></_>
        <_>
          <internalNodes>
            0 -1 206 -801121888 -675023415 2135831298 -1723379605
            -1607777868 1163919402 -1602829120 281540439</internalNodes>
          <leafValues>
            -4.2014768719673157e-01 2.4389459192752838e-01</leafValues></_>
        <_>
          <internalNodes>
            0 -1 220 -505165574 -247389140 -2121116615 1370296731
            -1290173251 -1993796856 85512347 -634976101</internalNodes>
          <leafValues>
            -2.3697355389595032e-01 4.4133800268173218e-01</leafValues></_>
        <_>
          <internalNodes>
            0 -1 168 856934110 -2143796788 -514841656 832971456
            1108789360 -805252907 -431526652 107731941</internalNodes>
          <leafValues>
            -4.5937809348106384e-01 2.3540882766246796e-01</leafValues></_></weakClassifiers></_></stages>
  <features>
    <_>
      <rect>
        0 0 1 1</rect></_>
    <_>
      <rect>
        0 0 1 2</rect></_>
    <_>
      <rect>
        0 0 1 3</rect></_>
    <_>
      <rect>
        0 0 1 4</rect></_>
    <_>
      <rect>
        0 0 1 5</rect></_>
    <_>
      <rect>
        0 0 1 6</rect></_>
    <_>
      <rect>
        0 0 2 1</rect></_>
    <_>
      <rect>
        0 0 2 6</rect></_>
    <_>
      <rect>
        0 0 3 1</rect></_>
    <_>
      <rect>
        0 0 4 1</rect></_>
    <_>
      <rect>
        0 0 4 3</rect></_>
    <_>
      <rect>
        0 0 4 5</rect></_>
    <_>
      <rect>
        0 0 4 6</rect></_>
    <_>
      <rect>
        0 0 5 1</rect></_>
    <_>
      <rect>
        0 0 5 4</rect></_>
    <_>
      <rect>
        0 0 7 1</rect></_>
    <_>
      <rect>
        0 0 7 2</rect></_>
    <_>
      <rect>
        0 0 12 3</rect></_>
    <_>
      <rect>
        0 0 13 3</rect></_>
    <_>
      <rect>
        0 0 14 1</rect></_>
    <_>
      <rect>
        0 0 17 2</rect></_>
    <_>
      <rect>
        0 0 21 2</rect></_>
    <_>
      <rect>
        0 0 22 1</rect></_>
    <_>
      <rect>
        0 1 1 3</rect></_>
    <_>
      <rect>
        0 1 2 3</rect></_>
    <_>
      <rect>
        0 1 2 4</rect></_>
    <_>
      <rect>
        0 1 2 6</rect></_>
    <_>
      <rect>
        0 1 3 2</rect></_>
    <_>
      <rect>
        0 1 3 4</rect></_>
    <_>
      <rect>
        0 1 4 2</rect></_>
    <_>
      <rect>
        0 1 4 3</rect></_>
    <_>
      <rect>
        0 1 4 4</rect></_>
    <_>
      <rect>
        0 1 6 1</rect></_>
    <_>
      <rect>
        0 1 6 3</rect></_>
    <_>
      <rect>
        0 1 12 1</rect></_>
    <_>
      <rect>
        0 1 14 1</rect></_>
    <_>
      <rect>
        0 1 17 1</rect></_>
    <_>
      <rect>
        0 1 17 4</rect></_>
    <_>
      <rect>
        0 1 18 1</rect></_>
    <_>
      <rect>
        0 1 19 1</rect></_>
    <_>
      <rect>
        0 2 2 3</rect></_>
    <_>
      <rect>
        0 2 2 4</rect></_>
    <_>
      <rect>
        0 2 3 2</rect></_>
    <_>
      <rect>
        0 2 4 2</rect></_>
    <_>
      <rect>
        0 2 4 3</rect></_>
    <_>
      <rect>
        0 2 14 1</rect></_>
    <_>
      <rect>
        0 2 19 1</rect></_>
    <_>
      <rect>
        0 2 27 2</rect></_>
    <_>
      <rect>
        0 3 20 4</rect></_>
    <_>
      <rect>
        0 4 8 1</rect></_>
    <_>
      <rect>
        0 6 1 1</rect></_>
    <_>
      <rect>
        0 17 1 1</rect></_>
    <_>
      <rect>
        1 0 1 1</rect></_>
    <_>
      <rect>
        1 0 1 5</rect></_>
    <_>
      <rect>
        1 0 2 1</rect></_>
    <_>
      <rect>
        1 0 2 3</rect></_>
    <_>
      <rect>
        1 0 7 1</rect></_>
    <_>
      <rect>
        1 0 9 1</rect></_>
    <_>
      <rect>
        1 0 15 1</rect></_>
    <_>
      <rect>
        1 0 17 1</rect></_>
    <_>
      <rect>
        1 1 1 3</rect></_>
    <_>
      <rect>
        1 1 2 5</rect></_>
    <_>
      <rect>
        1 1 9 1</rect></_>
    <_>
      <rect>
        1 3 11 1</rect></_>
    <_>
      <rect>
        1 3 16 1</rect></_>
    <_>
      <rect>
        1 4 17 1</rect></_>
    <_>
      <rect>
        2 0 6 1</rect></_>
    <_>
      <rect>
        2 0 32 4</rect></_>
    <_>
      <rect>
        2 1 31 2</rect></_>
    <_>
      <rect>
        2 3 5 1</rect></_>
    <_>
      <rect>
        2 5 23 1</rect></_>
    <_>
      <rect>
        3 0 2 2</rect></_>
    <_>
      <rect>
        3 0 3 3</rect></_>
    <_>
      <rect>
        3 0 4 1</rect></_>
    <_>
      <rect>
        3 0 7 1</rect></_>
    <_>
      <rect>
        3 0 13 1</rect></_>
    <_>
      <rect>
        3 0 22 2</rect></_>
    <_>
      <rect>
        3 1 5 1</rect></_>
    <_>
      <rect>
        3 1 24 3</rect></_>
    <_>
      <rect>
        3 2 2 2</rect></_>
    <_>
      <rect>
        3 2 7 1</rect></_>
    <_>
      <rect>
        3 3 13 1</rect></_>
    <_>
      <rect>
        4 0 2 4</rect></_>
    <_>
      <rect>
        4 0 22 2</rect></_>
    <_>
      <rect>
        4 1 4 2</rect></_>
    <_>
      <rect>
        4 1 12 1</rect></_>
    <_>
      <rect>
        4 2 2 1</rect></_>
    <_>
      <rect>
        4 2 13 1</rect></_>
    <_>
      <rect>
        4 2 31 2</rect></_>
    <_>
      <rect>
        4 3 1 2</rect></_>
    <_>
      <rect>
        4 3 2 2</rect></_>
    <_>
      <rect>
        4 3 3 2</rect></_>
    <_>
      <rect>
        4 3 8 1</rect></_>
    <_>
      <rect>
        4 4 14 1</rect></_>
    <_>
      <rect>
        4 5 4 2</rect></_>
    <_>
      <rect>
        5 0 2 3</rect></_>
    <_>
      <rect>
        5 0 15 1</rect></_>
    <_>
      <rect>
        5 0 16 1</rect></_>
    <_>
      <rect>
        5 0 22 1</rect></_>
    <_>
      <rect>
        5 1 2 4</rect></_>
    <_>
      <rect>
        5 1 29 3</rect></_>
    <_>
      <rect>
        5 2 2 2</rect></_>
    <_>
      <rect>
        5 2 2 3</rect></_>
    <_>
      <rect>
        5 4 9 1</rect></_>
    <_>
      <rect>
        6 0 3 3</rect></_>
    <_>
      <rect>
        6 1 1 3</rect></_>
    <_>
      <rect>
        6 1 2 3</rect></_>
    <_>
      <rect>
        6 1 3 2</rect></_>
    <_>
      <rect>
        6 2 3 3</rect></_>
    <_>
      <rect>
        6 3 17 1</rect></_>
    <_>
      <rect>
        7 0 3 6</rect></_>
    <_>
      <rect>
        7 1 14 1</rect></_>
    <_>
      <rect>
        7 2 18 1</rect></_>
    <_>
      <rect>
        8 1 2 3</rect></_>
    <_>
      <rect>
        8 1 2 5</rect></_>
    <_>
      <rect>
        8 1 27 3</rect></_>
    <_>
      <rect>
        9 0 6 1</rect></_>
    <_>
      <rect>
        9 1 1 2</rect></_>
    <_>
      <rect>
        9 1 2 3</rect></_>
    <_>
      <rect>
        9 3 1 3</rect></_>
    <_>
      <rect>
        10 0 22 2</rect></_>
    <_>
      <rect>
        10 0 29 4</rect></_>
    <_>
      <rect>
        10 2 1 2</rect></_>
    <_>
      <rect>
        11 0 6 1</rect></_>
    <_>
      <rect>
        11 0 14 1</rect></_>
    <_>
      <rect>
        11 0 26 3</rect></_>
    <_>
      <rect>
        11 1 2 3</rect></_>
    <_>
      <rect>
        11 1 5 1</rect></_>
    <_>
      <rect>
        11 2 13 1</rect></_>
    <_>
      <rect>
        12 0 15 3</rect></_>
    <_>
      <rect>
        12 2 2 2</rect></_>
    <_>
      <rect>
        12 2 4 2</rect></_>
    <_>
      <rect>
        13 0 14 1</rect></_>
    <_>
      <rect>
        13 0 17 1</rect></_>
    <_>
      <rect>
        13 1 2 3</rect></_>
    <_>
      <rect>
        14 0 2 3</rect></_>
    <_>
      <rect>
        14 1 27 3</rect></_>
    <_>
      <rect>
        15 0 2 2</rect></_>
    <_>
      <rect>
        15 1 2 3</rect></_>
    <_>
      <rect>
        15 2 2 2</rect></_>
    <_>
      <rect>
        16 0 3 3</rect></_>
    <_>
      <rect>
        16 0 8 1</rect></_>
    <_>
      <rect>
        16 1 13 1</rect></_>
    <_>
      <rect>
        16 3 2 2</rect></_>
    <_>
      <rect>
        17 0 2 2</rect></_>
    <_>
      <rect>
        17 0 2 3</rect></_>
    <_>
      <rect>
        17 1 2 5</rect></_>
    <_>
      <rect>
        17 1 15 1</rect></_>
    <_>
      <rect>
        17 2 1 5</rect></_>
    <_>
      <rect>
        17 3 2 3</rect></_>
    <_>
      <rect>
        17 4 1 2</rect></_>
    <_>
      <rect>
        18 1 27 4</rect></_>
    <_>
      <rect>
        18 2 1 6</rect></_>
    <_>
      <rect>
        18 2 26 4</rect></_>
    <_>
      <rect>
        18 2 27 3</rect></_>
    <_>
      <rect>
        19 0 8 1</rect></_>
    <_>
      <rect>
        19 0 19 1</rect></_>
    <_>
      <rect>
        19 1 2 3</rect></_>
    <_>
      <rect>
        19 5 21 2</rect></_>
    <_>
      <rect>
        20 0 22 3</rect></_>
    <_>
      <rect>
        20 2 2 3</rect></_>
    <_>
      <rect>
        20 2 16 2</rect></_>
    <_>
      <rect>
        21 1 3 3</rect></_>
    <_>
      <rect>
        22 0 3 3</rect></_>
    <_>
      <rect>
        22 0 13 1</rect></_>
    <_>
      <rect>
        22 0 15 4</rect></_>
    <_>
      <rect>
        22 1 2 3</rect></_>
    <_>
      <rect>
        22 1 14 6</rect></_>
    <_>
      <rect>
        22 1 17 1</rect></_>
    <_>
      <rect>
        23 1 19 4</rect></_>
    <_>
      <rect>
        23 2 4 3</rect></_>
    <_>
      <rect>
        23 3 3 2</rect></_>
    <_>
      <rect>
        24 0 2 2</rect></_>
    <_>
      <rect>
        24 0 8 1</rect></_>
    <_>
      <rect>
        24 0 10 1</rect></_>
    <_>
      <rect>
        24 0 15 1</rect></_>
    <_>
      <rect>
        24 0 22 2</rect></_>
    <_>
      <rect>
        24 2 4 2</rect></_>
    <_>
      <rect>
        24 3 3 4</rect></_>
    <_>
      <rect>
        25 1 13 1</rect></_>
    <_>
      <rect>
        25 1 15 2</rect></_>
    <_>
      <rect>
        26 0 2 2</rect></_>
    <_>
      <rect>
        26 0 19 2</rect></_>
    <_>
      <rect>
        26 3 2 5</rect></_>
    <_>
      <rect>
        26 4 1 3</rect></_>
    <_>
      <rect>
        27 0 3 2</rect></_>
    <_>
      <rect>
        27 0 10 1</rect></_>
    <_>
      <rect>
        27 9 1 1</rect></_>
    <_>
      <rect>
        28 0 16 1</rect></_>
    <_>
      <rect>
        28 0 22 3</rect></_>
    <_>
      <rect>
        28 2 4 2</rect></_>
    <_>
      <rect>
        28 2 14 2</rect></_>
    <_>
      <rect>
        29 0 3 2</rect></_>
    <_>
      <rect>
        30 0 11 1</rect></_>
    <_>
      <rect>
        30 1 10 1</rect></_>
    <_>
      <rect>
        31 0 10 2</rect></_>
    <_>
      <rect>
        31 0 18 1</rect></_>
    <_>
      <rect>
        31 1 4 3</rect></_>
    <_>
      <rect>
        32 1 10 3</rect></_>
    <_>
      <rect>
        33 0 2 2</rect></_>
    <_>
      <rect>
        33 0 3 2</rect></_>
    <_>
      <rect>
        33 0 4 2</rect></_>
    <_>
      <rect>
        33 0 10 1</rect></_>
    <_>
      <rect>
        34 0 1 1</rect></_>
    <_>
      <rect>
        34 2 11 2</rect></_>
    <_>
      <rect>
        35 1 4 2</rect></_>
    <_>
      <rect>
        36 2 4 1</rect></_>
    <_>
      <rect>
        37 0 4 1</rect></_>
    <_>
      <rect>
        37 0 9 3</rect></_>
    <_>
      <rect>
        39 2 4 3</rect></_>
    <_>
      <rect>
        41 0 2 1</rect></_>
    <_>
      <rect>
        41 0 2 2</rect></_>
    <_>
      <rect>
        42 0 2 1</rect></_>
    <_>
      <rect>
        42 1 4 2</rect></_>
    <_>
      <rect>
        42 2 4 2</rect></_>
    <_>
      <rect>
        42 3 4 1</rect></_>
    <_>
      <rect>
        43 1 18 6</rect></_>
    <_>
      <rect>
        43 2 17 4</rect></_>
    <_>
      <rect>
        44 0 4 3</rect></_>
    <_>
      <rect>
        46 2 11 3</rect></_>
    <_>
      <rect>
        46 17 1 1</rect></_>
    <_>
      <rect>
        48 2 9 3</rect></_>
    <_>
      <rect>
        49 1 7 3</rect></_>
    <_>
      <rect>
        49 2 17 4</rect></_>
    <_>
      <rect>
        53 2 11 4</rect></_>
    <_>
      <rect>
        55 1 13 5</rect></_>
    <_>
      <rect>
        62 0 7 1</rect></_>
    <_>
      <rect>
        62 3 4 3</rect></_>
    <_>
      <rect>
        66 0 7 1</rect></_>
    <_>
      <rect>
        67 1 11 5</rect></_>
    <_>
      <rect>
        76 16 1 1</rect></_>
    <_>
      <rect>
        88 17 2 1</rect></_>
    <_>
      <rect>
        90 16 2 1</rect></_>
    <_>
      <rect>
        93 16 2 1</rect></_>
    <_>
      <rect>
        96 8 1 1</rect></_>
    <_>
      <rect>
        97 7 1 1</rect></_>
    <_>
      <rect>
        97 11 1 1</rect></_>
    <_>
      <rect>
        97 13 1 1</rect></_>
    <_>
      <rect>
        97 14 1 1</rect></_></features></cascade>
</opencv_storage>
