<?xml version="1.0"?>
<opencv_storage>
<stage9>
  <maxWeakCount>13</maxWeakCount>
  <stageThreshold>-7.3439902067184448e-01</stageThreshold>
  <weakClassifiers>
    <_>
      <internalNodes>
        0 -1 47359 -143700156 -65594 -100729018 -1082147314 -1055612
        -51445764 -687968508 1087302796</internalNodes>
      <leafValues>
        -3.8985869288444519e-01 5.1469665765762329e-01</leafValues></_>
    <_>
      <internalNodes>
        0 -1 14586 -83886081 559336 -1961959633 499486443 -65537
        -1832919297 -30502913 -1917850369</internalNodes>
      <leafValues>
        -3.0840840935707092e-01 4.5940563082695007e-01</leafValues></_>
    <_>
      <internalNodes>
        0 -1 126 -1740842934 -615476903 1665266653 -5126847 679745736
        -15736431 -1467418021 -1464931671</internalNodes>
      <leafValues>
        -4.0624755620956421e-01 3.6668884754180908e-01</leafValues></_>
    <_>
      <internalNodes>
        0 -1 14129 1978607358 -34819 1005326232 -1048746 1598887549
        1497640184 1828228878 -148497</internalNodes>
      <leafValues>
        -3.4013679623603821e-01 3.8012772798538208e-01</leafValues></_>
    <_>
      <internalNodes>
        0 -1 1 -2013068288 -1442799616 75858001 151845516 -672926052
        -1719219257 -1056122464 -2631749</internalNodes>
      <leafValues>
        -3.8365867733955383e-01 3.2212072610855103e-01</leafValues></_>
    <_>
      <internalNodes>
        0 -1 2918 4982172 274243733 151787961 489242641 -396644673
        -2135260998 -1991677013 429832328</internalNodes>
      <leafValues>
        -4.5701751112937927e-01 2.6402518153190613e-01</leafValues></_>
    <_>
      <internalNodes>
        0 -1 12 -1288534608 -339153706 1401992731 475600130 -2003304231
        -36928576 -394159880 1197953351</internalNodes>
      <leafValues>
        -4.9870944023132324e-01 2.3966957628726959e-01</leafValues></_>
    <_>
      <internalNodes>
        0 -1 47257 -1039711744 -270323997 -272109781 -9574613 -11933981
        2104752439 -361891842 -232298686</internalNodes>
      <leafValues>
        -3.4427323937416077e-01 3.8570323586463928e-01</leafValues></_>
    <_>
      <internalNodes>
        0 -1 19972 2060352466 -181185249 -717229587 -1790459802
        -397882947 -1381399550 1803808552 -1463498036</internalNodes>
      <leafValues>
        -4.1824999451637268e-01 3.2246661186218262e-01</leafValues></_>
    <_>
      <internalNodes>
        0 -1 32515 -217889790 -218254365 559394250 1391419211
        -1319460858 -1680092270 -108531025 1395097667</internalNodes>
      <leafValues>
        -4.1991597414016724e-01 3.1832408905029297e-01</leafValues></_>
    <_>
      <internalNodes>
        0 -1 8448 823819901 1351452318 2131451801 -546354939 -1439334660
        -612466963 -17109059 -1691690867</internalNodes>
      <leafValues>
        -2.9541045427322388e-01 4.5651540160179138e-01</leafValues></_>
    <_>
      <internalNodes>
        0 -1 42786 -2062052994 331600134 21233804 -276815750 554945257
        633158312 950832316 -808554545</internalNodes>
      <leafValues>
        -3.8210013508796692e-01 3.4552255272865295e-01</leafValues></_>
    <_>
      <internalNodes>
        0 -1 30984 -1727423246 1575244382 -1492872440 -1713487806
        1115998340 -1128840943 1751428612 -2005992531</internalNodes>
      <leafValues>
        -4.4407814741134644e-01 3.0848231911659241e-01</leafValues></_></weakClassifiers></stage9>
</opencv_storage>
