<?xml version="1.0"?>
<opencv_storage>
<stage14>
  <maxWeakCount>16</maxWeakCount>
  <stageThreshold>-7.4638646841049194e-01</stageThreshold>
  <weakClassifiers>
    <_>
      <internalNodes>
        0 -1 16403 -1360074902 -1357185302 -1507815904 47065770 -8195
        -134217729 -270013204 -318771474</internalNodes>
      <leafValues>
        -4.3728813529014587e-01 4.6666666865348816e-01</leafValues></_>
    <_>
      <internalNodes>
        0 -1 23 1474949629 -340803045 1149425683 -484192733 198017001
        1547510240 -1450137459 1794722815</internalNodes>
      <leafValues>
        -3.6706930398941040e-01 3.1806120276451111e-01</leafValues></_>
    <_>
      <internalNodes>
        0 -1 2175 -1744284592 1029128452 1798603032 -40037568 2099236
        -100113868 -1430759372 715829381</internalNodes>
      <leafValues>
        -4.8277729749679565e-01 2.7130302786827087e-01</leafValues></_>
    <_>
      <internalNodes>
        0 -1 32680 -1075888402 1442642834 -1072689952 -70270978
        337394580 1235544813 2101685736 -83886385</internalNodes>
      <leafValues>
        -3.3830285072326660e-01 3.2587555050849915e-01</leafValues></_>
    <_>
      <internalNodes>
        0 -1 21933 -1810766248 339682371 89982967 291447695 -641388897
        -1107566951 -81523720 -1074855800</internalNodes>
      <leafValues>
        -3.0121228098869324e-01 3.5831731557846069e-01</leafValues></_>
    <_>
      <internalNodes>
        0 -1 54842 -11598618 -136470025 1116710220 -1614955192
        -399774980 277701120 -410195764 1944931532</internalNodes>
      <leafValues>
        -4.3247634172439575e-01 2.4672584235668182e-01</leafValues></_>
    <_>
      <internalNodes>
        0 -1 81513 -880560558 855767051 -2116415180 218137984 -986208136
        470350721 -408385400 -570820115</internalNodes>
      <leafValues>
        -3.2147178053855896e-01 3.4272465109825134e-01</leafValues></_>
    <_>
      <internalNodes>
        0 -1 23917 -204555192 -426924156 852232200 1904929469
        -1781792688 32564630 1585398670 1393544071</internalNodes>
      <leafValues>
        -4.5086044073104858e-01 2.2356152534484863e-01</leafValues></_>
    <_>
      <internalNodes>
        0 -1 54739 -297396672 -15892061 2089110909 -215060094 -994671052
        -125387622 1199684368 1852231440</internalNodes>
      <leafValues>
        -5.0002765655517578e-01 1.9997894763946533e-01</leafValues></_>
    <_>
      <internalNodes>
        0 -1 29156 472721126 544521480 1324878860 -255011676 1394086240
        117727988 2035366989 1402861378</internalNodes>
      <leafValues>
        -5.0033462047576904e-01 2.1558502316474915e-01</leafValues></_>
    <_>
      <internalNodes>
        0 -1 103938 -694513509 -1829863280 1696619735 -1660484528
        -2094229287 2086880776 196780233 -1861287789</internalNodes>
      <leafValues>
        -2.5933545827865601e-01 4.1438251733779907e-01</leafValues></_>
    <_>
      <internalNodes>
        0 -1 50581 -286314258 -1033067441 1078743264 334859079
        1059924381 11800628 997423772 1895645867</internalNodes>
      <leafValues>
        -4.2757713794708252e-01 2.5006544589996338e-01</leafValues></_>
    <_>
      <internalNodes>
        0 -1 59230 2147473721 602832742 -1410534155 -269565342
        -1177244016 964611965 -1141097687 -101718138</internalNodes>
      <leafValues>
        -2.8084504604339600e-01 3.9913913607597351e-01</leafValues></_>
    <_>
      <internalNodes>
        0 -1 9102 2043118310 -213824692 17105536 -28991723 -902519881
        -1191173574 -884893457 -810880912</internalNodes>
      <leafValues>
        -3.2874950766563416e-01 3.4333088994026184e-01</leafValues></_>
    <_>
      <internalNodes>
        0 -1 98642 -939386672 -1324471900 83898483 2066223133
        -1995165542 -1257226068 144821216 -1719008101</internalNodes>
      <leafValues>
        -3.4318193793296814e-01 3.2993710041046143e-01</leafValues></_>
    <_>
      <internalNodes>
        0 -1 18143 1306985414 127154446 -1998838524 1999454668
        -1168083071 960236416 1431709071 297394700</internalNodes>
      <leafValues>
        -4.7235253453254700e-01 2.4864210188388824e-01</leafValues></_></weakClassifiers></stage14>
</opencv_storage>
