<?xml version="1.0"?>
<opencv_storage>
<stage4>
  <maxWeakCount>9</maxWeakCount>
  <stageThreshold>-1.2353996038436890e+00</stageThreshold>
  <weakClassifiers>
    <_>
      <internalNodes>
        0 -1 211 -753667294 -785186505 -1843031213 1943769911 21312512
        1411391844 1900246903 2000122743</internalNodes>
      <leafValues>
        -5.9298247098922729e-01 5.5061727762222290e-01</leafValues></_>
    <_>
      <internalNodes>
        0 -1 25467 -2147464076 -1115713071 -116101765 -46853684
        545788134 -40495879 681639658 -1464938620</internalNodes>
      <leafValues>
        -4.8687011003494263e-01 4.0475970506668091e-01</leafValues></_>
    <_>
      <internalNodes>
        0 -1 34686 -80498177 427366195 -1582686200 -1077992917 -67620
        -738197763 -1403190820 -50602017</internalNodes>
      <leafValues>
        -3.3692780137062073e-01 5.3537231683731079e-01</leafValues></_>
    <_>
      <internalNodes>
        0 -1 16253 -171970814 1466742759 1856905984 -674244037
        1073702773 420771562 2146269135 -134222130</internalNodes>
      <leafValues>
        -3.5093557834625244e-01 4.8070797324180603e-01</leafValues></_>
    <_>
      <internalNodes>
        0 -1 276 -1862143759 1351110872 -2120939043 1435982840
        1846926060 -1197864716 503376829 992686265</internalNodes>
      <leafValues>
        -4.4772028923034668e-01 3.5684522986412048e-01</leafValues></_>
    <_>
      <internalNodes>
        0 -1 2079 -1876775936 -1736376280 16782800 -150535485 -503275094
        -439852875 -1148021334 -282897917</internalNodes>
      <leafValues>
        -3.8882675766944885e-01 3.9748278260231018e-01</leafValues></_>
    <_>
      <internalNodes>
        0 -1 6301 -127470132 -641146818 -1346220088 -2122150650 4582125
        -55983959 -2000422739 -1999781140</internalNodes>
      <leafValues>
        -5.4974824190139771e-01 2.8241279721260071e-01</leafValues></_>
    <_>
      <internalNodes>
        0 -1 209 -673450602 -2 2147091932 -98306 -1366029172 989151225
        -866121504 -71312889</internalNodes>
      <leafValues>
        -3.5246226191520691e-01 4.4564396142959595e-01</leafValues></_>
    <_>
      <internalNodes>
        0 -1 24 805321808 -334414436 -1347026723 1058824520 -1168098901
        -1179874837 -1509922322 1996816400</internalNodes>
      <leafValues>
        -5.9653168916702271e-01 2.9531314969062805e-01</leafValues></_></weakClassifiers></stage4>
</opencv_storage>
