<?xml version="1.0"?>
<opencv_storage>
<stage12>
  <maxWeakCount>14</maxWeakCount>
  <stageThreshold>-1.0035953521728516e+00</stageThreshold>
  <weakClassifiers>
    <_>
      <internalNodes>
        0 -1 4531 -55645458 -1074069506 -1966158328 720038570 -402919435
        -285278209 -286364468 -319886097</internalNodes>
      <leafValues>
        -4.1978865861892700e-01 4.9142971634864807e-01</leafValues></_>
    <_>
      <internalNodes>
        0 -1 2083 -673436584 -540745024 -517992424 -650345492 1070863832
        -1414683000 83364584 -382020</internalNodes>
      <leafValues>
        -5.7665157318115234e-01 2.4901013076305389e-01</leafValues></_>
    <_>
      <internalNodes>
        0 -1 40959 -1737728908 1031505853 324047739 -45120256 675584250
        2029166768 -434284124 -356068408</internalNodes>
      <leafValues>
        -4.2532801628112793e-01 3.1091114878654480e-01</leafValues></_>
    <_>
      <internalNodes>
        0 -1 33001 -545538066 -1280813830 -1530648064 -3100786
        1882998665 456422940 2038201796 -71307541</internalNodes>
      <leafValues>
        -3.3049428462982178e-01 3.6156293749809265e-01</leafValues></_>
    <_>
      <internalNodes>
        0 -1 45897 -1710536458 -49663391 -247136484 -39394972 -867647136
        -257582932 1783495430 -1940917713</internalNodes>
      <leafValues>
        -3.7452906370162964e-01 3.0565291643142700e-01</leafValues></_>
    <_>
      <internalNodes>
        0 -1 22 1198486463 -475013641 -2004242213 2047000719 2062030812
        1533886945 -139808888 1056469928</internalNodes>
      <leafValues>
        -4.4429308176040649e-01 2.6030468940734863e-01</leafValues></_>
    <_>
      <internalNodes>
        0 -1 89244 -251480111 -80483563 320895383 1608172421 1220719327
        -1358986127 -335577173 -1165012111</internalNodes>
      <leafValues>
        -2.4434593319892883e-01 5.1062887907028198e-01</leafValues></_>
    <_>
      <internalNodes>
        0 -1 2085 -243035693 -1512051741 254607350 -282449101 -839744376
        -306657831 -274485346 1170174583</internalNodes>
      <leafValues>
        -3.5710024833679199e-01 3.7009716033935547e-01</leafValues></_>
    <_>
      <internalNodes>
        0 -1 62987 1682362912 926028777 -574385409 390349510 -1578496820
        313011154 -2081291916 2002808898</internalNodes>
      <leafValues>
        -5.3594428300857544e-01 2.3232173919677734e-01</leafValues></_>
    <_>
      <internalNodes>
        0 -1 103632 -758410056 -49871274 1900039261 -249102232 263776488
        -607419984 -1660909832 -71613286</internalNodes>
      <leafValues>
        -2.4722744524478912e-01 4.7587832808494568e-01</leafValues></_>
    <_>
      <internalNodes>
        0 -1 68047 -2143090176 -44365161 814419511 -657511957 -364948763
        -591228517 -489382961 1087358242</internalNodes>
      <leafValues>
        -4.2318892478942871e-01 2.7708840370178223e-01</leafValues></_>
    <_>
      <internalNodes>
        0 -1 20206 -807162544 -294850784 207761154 -1280645973
        1467504016 754284527 1769693216 -136582587</internalNodes>
      <leafValues>
        -3.2945373654365540e-01 3.5597634315490723e-01</leafValues></_>
    <_>
      <internalNodes>
        0 -1 54786 -30712558 -962858196 1884889971 260736016 588202712
        -1440028535 1909215068 1658515648</internalNodes>
      <leafValues>
        -4.3223175406455994e-01 2.7062752842903137e-01</leafValues></_>
    <_>
      <internalNodes>
        0 -1 103189 -97781616 1517568032 378838737 -716625052
        -1684561534 974799874 -1256969845 -1691357054</internalNodes>
      <leafValues>
        -3.0609002709388733e-01 3.9819458127021790e-01</leafValues></_></weakClassifiers></stage12>
</opencv_storage>
