<?xml version="1.0"?>
<opencv_storage>
<stage15>
  <maxWeakCount>15</maxWeakCount>
  <stageThreshold>-6.6778278350830078e-01</stageThreshold>
  <weakClassifiers>
    <_>
      <internalNodes>
        0 -1 34530 -1611967570 503247917 -1934840276 1064808360
        -20984324 -1116078083 -1624266820 -1347682305</internalNodes>
      <leafValues>
        -1.2880323827266693e-01 5.5958294868469238e-01</leafValues></_>
    <_>
      <internalNodes>
        0 -1 2287 2123628541 -537788417 -515 -1 207447996 1021119437
        1858952700 -5377</internalNodes>
      <leafValues>
        -2.5236544013023376e-01 4.4280382990837097e-01</leafValues></_>
    <_>
      <internalNodes>
        0 -1 50364 -1643359920 456836000 -536717953 1071420036 833740744
        -628905280 -1678714094 2005820556</internalNodes>
      <leafValues>
        -4.1397047042846680e-01 2.7656593918800354e-01</leafValues></_>
    <_>
      <internalNodes>
        0 -1 27224 -800858294 -504848859 -813036022 -515249266
        -275908623 602535737 972240523 1356424847</internalNodes>
      <leafValues>
        -4.0111705660820007e-01 2.5756168365478516e-01</leafValues></_>
    <_>
      <internalNodes>
        0 -1 69243 1245235 -71582988 -1481108067 2141040596 -1095332610
        -1095577978 -91476229 -154413045</internalNodes>
      <leafValues>
        -2.6697224378585815e-01 4.0222302079200745e-01</leafValues></_>
    <_>
      <internalNodes>
        0 -1 97 -1878461490 1125290694 -233470027 -1083365448 1616707869
        -1116497613 568195241 11120637</internalNodes>
      <leafValues>
        -5.1276475191116333e-01 1.8853288888931274e-01</leafValues></_>
    <_>
      <internalNodes>
        0 -1 56321 -1997578415 933988814 -579046691 -305232728
        -2065757700 2113006303 2087261112 2087024485</internalNodes>
      <leafValues>
        -3.6078941822052002e-01 2.9883608222007751e-01</leafValues></_>
    <_>
      <internalNodes>
        0 -1 6192 -645204613 -1178980641 1335737781 -8552961 -1385589854
        -71696434 -575291457 -1181775222</internalNodes>
      <leafValues>
        -2.1904644370079041e-01 5.0462400913238525e-01</leafValues></_>
    <_>
      <internalNodes>
        0 -1 25571 1664005230 732862612 -1052241652 -1346396146
        1398217964 442238460 -850272535 1107938082</internalNodes>
      <leafValues>
        -4.3721801042556763e-01 2.5588059425354004e-01</leafValues></_>
    <_>
      <internalNodes>
        0 -1 32754 -1204890410 -581708693 -266244334 -171318718
        1819546788 -146530024 -1431671232 753793173</internalNodes>
      <leafValues>
        -4.4065299630165100e-01 2.5123932957649231e-01</leafValues></_>
    <_>
      <internalNodes>
        0 -1 0 -1476163045 -362397529 599147865 1686719267 -767064920
        -624638241 -1456470625 -9438977</internalNodes>
      <leafValues>
        -2.3160919547080994e-01 4.8423758149147034e-01</leafValues></_>
    <_>
      <internalNodes>
        0 -1 5164 -1956951457 1358971642 819006141 487303180 -608305497
        -1463014682 -1900036430 -1886653671</internalNodes>
      <leafValues>
        -2.3297750949859619e-01 4.8446533083915710e-01</leafValues></_>
    <_>
      <internalNodes>
        0 -1 47691 -748474881 -952726737 -805957392 2113690618 766778872
        1296847292 1441533948 -16787297</internalNodes>
      <leafValues>
        -2.1231813728809357e-01 4.9632096290588379e-01</leafValues></_>
    <_>
      <internalNodes>
        0 -1 103945 -745901896 1931485952 1342347289 1964675089
        344065452 -1375731183 1224773290 -1856302929</internalNodes>
      <leafValues>
        -3.4607064723968506e-01 3.5172161459922791e-01</leafValues></_>
    <_>
      <internalNodes>
        0 -1 31254 1388832214 2071838336 346688064 -689066345 2004037589
        451981105 912590470 -420743318</internalNodes>
      <leafValues>
        -3.0058082938194275e-01 3.7004250288009644e-01</leafValues></_></weakClassifiers></stage15>
</opencv_storage>
