<?xml version="1.0"?>
<opencv_storage>
<stage17>
  <maxWeakCount>16</maxWeakCount>
  <stageThreshold>-7.3795229196548462e-01</stageThreshold>
  <weakClassifiers>
    <_>
      <internalNodes>
        0 -1 692 406288727 286276053 -983811 -2293770 -1 18923517
        -262145 2142815076</internalNodes>
      <leafValues>
        -6.6310636699199677e-02 5.7260859012603760e-01</leafValues></_>
    <_>
      <internalNodes>
        0 -1 2085 -267144205 -275270679 522565485 -100664733 -1359507777
        -606352299 -1077937153 -2394249</internalNodes>
      <leafValues>
        -1.7585244774818420e-01 5.2795654535293579e-01</leafValues></_>
    <_>
      <internalNodes>
        0 -1 40901 -261185906 -100731685 -24705624 1475019947 1998057963
        528298230 -1949582481 1404040842</internalNodes>
      <leafValues>
        -3.3582219481468201e-01 2.9166671633720398e-01</leafValues></_>
    <_>
      <internalNodes>
        0 -1 62955 4390979 -1082194121 722642943 -141323626 1895718911
        -4529253 1961578187 -1341464320</internalNodes>
      <leafValues>
        -3.3044910430908203e-01 2.9377242922782898e-01</leafValues></_>
    <_>
      <internalNodes>
        0 -1 74177 -942408833 453008150 -180632449 1535359869 1845346040
        178842747 868428712 1440477631</internalNodes>
      <leafValues>
        -3.1683325767517090e-01 3.1053259968757629e-01</leafValues></_>
    <_>
      <internalNodes>
        0 -1 23648 1154463470 17475148 -1320713208 132939784 693747787
        -1106795189 1757386460 145723359</internalNodes>
      <leafValues>
        -5.5126184225082397e-01 1.7420935630798340e-01</leafValues></_>
    <_>
      <internalNodes>
        0 -1 200 -924054456 -1421704676 -1050660464 730096270 1424129928
        -653389782 -81186280 -76754440</internalNodes>
      <leafValues>
        -4.6959024667739868e-01 1.9872480630874634e-01</leafValues></_>
    <_>
      <internalNodes>
        0 -1 18497 -17157044 -1933274548 1141573844 -1462230872
        497557320 1002722152 -345871524 -352321737</internalNodes>
      <leafValues>
        -3.8610967993736267e-01 2.6266613602638245e-01</leafValues></_>
    <_>
      <internalNodes>
        0 -1 36 -895962052 -2022339111 144585821 1278273997 -1755821096
        -307965548 989895006 2066808880</internalNodes>
      <leafValues>
        -4.7185093164443970e-01 2.2731019556522369e-01</leafValues></_>
    <_>
      <internalNodes>
        0 -1 10585 -187942002 334264768 -956027232 -242509946 1735459736
        35470384 346819500 311023595</internalNodes>
      <leafValues>
        -4.9260622262954712e-01 2.1161676943302155e-01</leafValues></_>
    <_>
      <internalNodes>
        0 -1 8401 -612190994 1433719734 4391339 868791122 -509864999
        636577788 -630261559 -303183160</internalNodes>
      <leafValues>
        -3.4688812494277954e-01 2.9636642336845398e-01</leafValues></_>
    <_>
      <internalNodes>
        0 -1 77315 -754016378 54747468 -1759638400 -1424573768
        1941781796 274848180 989899912 350220794</internalNodes>
      <leafValues>
        -4.5423418283462524e-01 2.1943759918212891e-01</leafValues></_>
    <_>
      <internalNodes>
        0 -1 41051 451359050 546321667 1235222788 968794684 1601032144
        170218068 1465196844 1406391436</internalNodes>
      <leafValues>
        -4.6520939469337463e-01 2.3454117774963379e-01</leafValues></_>
    <_>
      <internalNodes>
        0 -1 44184 271277142 -1721894744 -1795087563 -12042142
        1209064913 -553999793 1753709392 1139456140</internalNodes>
      <leafValues>
        -4.0928813815116882e-01 2.4733407795429230e-01</leafValues></_>
    <_>
      <internalNodes>
        0 -1 103943 -760810328 324796544 459413529 -540773244
        -1344035610 -392550327 513835145 -1167337298</internalNodes>
      <leafValues>
        -2.7569022774696350e-01 3.8087317347526550e-01</leafValues></_>
    <_>
      <internalNodes>
        0 -1 8317 -938546486 -798731943 23234018 -1175935610 541451454
        -1186627583 -1519990532 -1467161363</internalNodes>
      <leafValues>
        -5.2030450105667114e-01 2.1652702987194061e-01</leafValues></_></weakClassifiers></stage17>
</opencv_storage>
