<?xml version="1.0"?>
<opencv_storage>
<stage10>
  <maxWeakCount>13</maxWeakCount>
  <stageThreshold>-1.1443246603012085e+00</stageThreshold>
  <weakClassifiers>
    <_>
      <internalNodes>
        0 -1 416 2013233111 -16395 -98305 -134217729 905787264
        1674868213 1433171965 2003695460</internalNodes>
      <leafValues>
        -3.0297029018402100e-01 5.4827201366424561e-01</leafValues></_>
    <_>
      <internalNodes>
        0 -1 34691 -604241921 490303865 556761480 670284708 -480903239
        -1443004676 2089803773 -2097153</internalNodes>
      <leafValues>
        -2.6922786235809326e-01 4.7683644294738770e-01</leafValues></_>
    <_>
      <internalNodes>
        0 -1 5 -10562338 -608784802 1540936278 933014872 159592845
        -402585405 985664168 -67214276</internalNodes>
      <leafValues>
        -3.8260731101036072e-01 3.2279232144355774e-01</leafValues></_>
    <_>
      <internalNodes>
        0 -1 6210 -658983459 -294604 221879157 -140943971 619192252
        -1179121423 990388219 724041728</internalNodes>
      <leafValues>
        -4.2284512519836426e-01 2.9765826463699341e-01</leafValues></_>
    <_>
      <internalNodes>
        0 -1 57526 570573826 -10486603 -145594497 -818961617 -429001745
        -89175050 -1544952141 -497039834</internalNodes>
      <leafValues>
        -3.5601001977920532e-01 3.3057251572608948e-01</leafValues></_>
    <_>
      <internalNodes>
        0 -1 8646 1353439438 -1865940947 -1523449793 487522393
        -2116289542 -1594924357 -1158993253 -1610643043</internalNodes>
      <leafValues>
        -3.5077276825904846e-01 3.4091234207153320e-01</leafValues></_>
    <_>
      <internalNodes>
        0 -1 36080 1610592774 261405130 -1995697908 872043695 545465189
        431771549 1835348639 1932518659</internalNodes>
      <leafValues>
        -4.3204206228256226e-01 2.6364195346832275e-01</leafValues></_>
    <_>
      <internalNodes>
        0 -1 76358 1095237566 922960061 -2059848720 1434254299
        1106741192 21284 148214152 1408234974</internalNodes>
      <leafValues>
        -4.1007700562477112e-01 2.9081824421882629e-01</leafValues></_>
    <_>
      <internalNodes>
        0 -1 300 -1743521076 -1799584200 1086708132 1430001468 -16655636
        -1556932467 1523339245 943704285</internalNodes>
      <leafValues>
        -4.3125161528587341e-01 2.9077011346817017e-01</leafValues></_>
    <_>
      <internalNodes>
        0 -1 2279 -1418231014 -351013998 822788184 -908543544 1002511352
        -123670400 1933323376 -8464</internalNodes>
      <leafValues>
        -3.6246082186698914e-01 3.3661165833473206e-01</leafValues></_>
    <_>
      <internalNodes>
        0 -1 74 1402182579 928002965 1360130399 995734353 -1984305637
        -1475047739 -1937126149 830427905</internalNodes>
      <leafValues>
        -4.6034774184226990e-01 2.6648154854774475e-01</leafValues></_>
    <_>
      <internalNodes>
        0 -1 18136 -808721114 329848618 -592767722 -1884385623
        -1074315391 800348149 1656170272 -420482046</internalNodes>
      <leafValues>
        -3.3222490549087524e-01 3.9367291331291199e-01</leafValues></_>
    <_>
      <internalNodes>
        0 -1 6810 -2079099938 -2012175816 657503165 495814969
        -1999667381 -1601438915 -1469927781 -1653744451</internalNodes>
      <leafValues>
        -3.4448286890983582e-01 3.6453825235366821e-01</leafValues></_></weakClassifiers></stage10>
</opencv_storage>
