<?xml version="1.0"?>
<opencv_storage>
<stage11>
  <maxWeakCount>13</maxWeakCount>
  <stageThreshold>-8.6563235521316528e-01</stageThreshold>
  <weakClassifiers>
    <_>
      <internalNodes>
        0 -1 409 -135006430 -2185 -8915981 -2177 1416918592 1926518644
        2004187127 2004318070</internalNodes>
      <leafValues>
        -4.0651163458824158e-01 4.9482232332229614e-01</leafValues></_>
    <_>
      <internalNodes>
        0 -1 57573 -2142937993 -606218252 -557197 1006630618 514841849
        -1146882 1048502271 -85000700</internalNodes>
      <leafValues>
        -2.4231599271297455e-01 5.3052306175231934e-01</leafValues></_>
    <_>
      <internalNodes>
        0 -1 32836 -34106369 1064091632 -1473101988 661422044 185106348
        -1887913476 -822199828 -267813</internalNodes>
      <leafValues>
        -2.2360682487487793e-01 5.3287309408187866e-01</leafValues></_>
    <_>
      <internalNodes>
        0 -1 21765 -2147476204 -6548390 -1255076449 -1622833539
        -2030005602 -1701402647 -1545012740 170524840</internalNodes>
      <leafValues>
        -5.2437520027160645e-01 2.0769162476062775e-01</leafValues></_>
    <_>
      <internalNodes>
        0 -1 12358 -255355254 -44182137 209715200 -680404721 -1312434965
        1915827690 2132233215 -417340754</internalNodes>
      <leafValues>
        -3.2589489221572876e-01 3.6546507477760315e-01</leafValues></_>
    <_>
      <internalNodes>
        0 -1 37739 -684851388 -1147826274 -581598684 495136928
        -775723272 -1707570390 -122050552 956229070</internalNodes>
      <leafValues>
        -5.4492193460464478e-01 2.0212382078170776e-01</leafValues></_>
    <_>
      <internalNodes>
        0 -1 42845 1041992578 827896085 973472904 -211244 -1297185492
        359661762 749207468 2142004864</internalNodes>
      <leafValues>
        -4.9958783388137817e-01 2.2693122923374176e-01</leafValues></_>
    <_>
      <internalNodes>
        0 -1 12353 1391929866 703443955 -1888082164 1205854414
        2063667981 1174462621 2102164958 1358810735</internalNodes>
      <leafValues>
        -4.8433557152748108e-01 2.3438949882984161e-01</leafValues></_>
    <_>
      <internalNodes>
        0 -1 29323 -91510034 1690865873 -402904960 2043646118 1581331428
        219160861 1999423182 -754981218</internalNodes>
      <leafValues>
        -3.6783283948898315e-01 3.1015753746032715e-01</leafValues></_>
    <_>
      <internalNodes>
        0 -1 48775 -490540928 -540429859 -308563317 -612392480
        -626395041 -1768716662 1780153753 1080377856</internalNodes>
      <leafValues>
        -5.0426316261291504e-01 2.4576269090175629e-01</leafValues></_>
    <_>
      <internalNodes>
        0 -1 37931 -17847308 298724658 495597856 -73654296 707797285
        757416241 1157933033 -743443658</internalNodes>
      <leafValues>
        -3.4501576423645020e-01 3.3990338444709778e-01</leafValues></_>
    <_>
      <internalNodes>
        0 -1 68046 131152 -1151528634 -1604363053 -80735393 -1826743573
        -24163515 -1357214918 -434642680</internalNodes>
      <leafValues>
        -3.9658468961715698e-01 3.0230280756950378e-01</leafValues></_>
    <_>
      <internalNodes>
        0 -1 10959 88095764 1368404036 160224531 1024524629 -1070531860
        -652077651 19040666 454825096</internalNodes>
      <leafValues>
        -4.3422418832778931e-01 2.8813436627388000e-01</leafValues></_></weakClassifiers></stage11>
</opencv_storage>
