<?xml version="1.0"?>
<opencv_storage>
<stage5>
  <maxWeakCount>11</maxWeakCount>
  <stageThreshold>-9.4492483139038086e-01</stageThreshold>
  <weakClassifiers>
    <_>
      <internalNodes>
        0 -1 219 -674791425 -9217 -42075171 -134217729 1742550260
        1432115156 2146303961 1979579326</internalNodes>
      <leafValues>
        -2.3069852590560913e-01 6.5428870916366577e-01</leafValues></_>
    <_>
      <internalNodes>
        0 -1 8755 -680001736 -1684343172 -2020807544 709322798
        -637430275 -1173366 -754127156 -805310977</internalNodes>
      <leafValues>
        -4.9830681085586548e-01 3.7747693061828613e-01</leafValues></_>
    <_>
      <internalNodes>
        0 -1 2127 428910840 -75761442 421302233 -3053155 -1870132056
        -1107400295 18898939 184549512</internalNodes>
      <leafValues>
        -5.6031882762908936e-01 3.0917668342590332e-01</leafValues></_>
    <_>
      <internalNodes>
        0 -1 12173 -177754386 -137506107 27788546 -137696890 1364841447
        2136480100 -115368561 2009063626</internalNodes>
      <leafValues>
        -4.2016205191612244e-01 3.9284321665763855e-01</leafValues></_>
    <_>
      <internalNodes>
        0 -1 51799 1073860608 -175647411 -213658353 -615543355
        -1067194338 1782606730 -711082290 1078446082</internalNodes>
      <leafValues>
        -5.3312015533447266e-01 3.1187194585800171e-01</leafValues></_>
    <_>
      <internalNodes>
        0 -1 32516 -211319294 797738422 -1056571392 -1211914482
        -745840218 33818145 -16836726 1930421326</internalNodes>
      <leafValues>
        -4.7555002570152283e-01 3.2972314953804016e-01</leafValues></_>
    <_>
      <internalNodes>
        0 -1 2748 312122015 276824218 83888281 495255693 -1310991713
        -1876257890 -1833321473 164613517</internalNodes>
      <leafValues>
        -4.7135955095291138e-01 3.4000515937805176e-01</leafValues></_>
    <_>
      <internalNodes>
        0 -1 36018 -1744153520 1606384390 587783511 1064914954
        1984092656 -1392996255 547063872 35846560</internalNodes>
      <leafValues>
        -5.3170633316040039e-01 3.1573134660720825e-01</leafValues></_>
    <_>
      <internalNodes>
        0 -1 3 -959789380 -481555902 -1071479532 -741829636 -1698100758
        -618102776 1795983512 -270605374</internalNodes>
      <leafValues>
        -4.5855128765106201e-01 3.8531297445297241e-01</leafValues></_>
    <_>
      <internalNodes>
        0 -1 2087 1999886129 327285751 -603793575 -1618552797 64707568
        310382609 1409644849 1911912277</internalNodes>
      <leafValues>
        -6.3273549079895020e-01 2.5330927968025208e-01</leafValues></_>
    <_>
      <internalNodes>
        0 -1 12347 -606363982 -1120473181 796441868 -1751728594
        1576695072 1064664956 1602169096 -631778047</internalNodes>
      <leafValues>
        -3.2752817869186401e-01 5.0770580768585205e-01</leafValues></_></weakClassifiers></stage5>
</opencv_storage>
